tree
version=v4
num_class=1
num_tree_per_iteration=1
label_index=0
max_feature_idx=8
objective=regression
feature_names=market_encoded item_standard_encoded price_type_encoded category_encoded origin_type_encoded day month weekday distance_from_user
feature_infos=[0:5] [0:35] [0:1] [0:4] [0:1] [1:31] [1:12] [0:6] [0.62935511047301718:127.79068155644948]
tree_sizes=2131 1685 1067 1513 1147 1325 975 1425 1246 1509 1325 1600 1232 1058 1859 1576 1493 1066 2003 1761 1691 1162 1155 1498 1745 1596 1493 1312 1314 1595 1597 1667 1148 1503 1505 1488 2189 1574 1599 1144 1142 1673 1756 1410 1052 971 1315 1571 1413 1408 1487 1405 1146 1146 1502 1769 1061 1412 1229 1756 1148 1759 1942 1663 1414 1690 1071 1750 1591 1341 1697 1428 1065 1492 1678 1687 1615 1251 1323 1254 1516 1077 1519 1417 1520 1861 1249 1235 1877 1233 1322 1610 1512 1699 1066 1153 1242 1345 1249 1875 1238 1067 1526 1718 1251 1160 1248 1339 1240 1244 1409 1507 1687 1325 1166 1435 1443 1522 1266 1262 1272 1629 1161 1812 1349 1446 1347 1541 1270 1426 895 1338 1520 1169 1709 1453 1644 1452 1543 1904 1528 1635 1627 1808 1551 1083 1367 1277 980 1270 1168 1268 1554 1706 1371 1447 1536 1083 1643 1173 1645 1093 1572 1839 999 1380 1467 1288 1653 1748 1368 1096 1103 1739 1194 1377 1564 1931 2032 1550 1387 1391 1580 1302 1397 1381 1012 1671 1193 1573 2223 1568 1687 1486 1476 2222 1684 1766 1662 1107 1001 1480 1568 1487 1868 1489 1400 1576 1406 1977 1786 1710 1402 1866 1204 1195 1411 1309 1705 1516 1407 1591 1320 1515 1524 1215 1611 1513 1218 1420 1792 1502 1812 1215 1515 1782 1222 1877 1220 1699 1498 1708 932 2073 1799 1326 1033 1502 1617 1413 1319 1228 1598 1413 1414 1704 1892 1132 1702 1601 1315 1412 1780 1134 1600 1498 1317 1579 1417 1998 1809 1693 1131 1234 1804 1514 1706 1138 1508 1614 1514 1327 1412 1319 1329 1419 1988 1995 1129 1611 1026 1702 1320 1902 1411 1605 1040 2192 1902 1430 1699 1698 1231 1036 1223 1611 1228 1427 1528 1337 1618 1327 1619 1702 1520 1512 1921 1527 1705 1610 1229 1797 1514 1030 1613 1038 1824 1417 1703 1228 1517 1430 1131 1701 1815 1408 1527 1603 1430 1908 1511 1890 1617 1616 1521 1611 1330 1605 1415 1599 1227 1135 1429 1906 1600 1897 1228 1223 1436 1238 1233 1236 1709 1426 1801 1797 1803 1040 1333 1804 1715 2273 1606 1616 1425 1716 2014 1690 1328 1329 1623 1433 1613 2264 1426 1709 1439 1423 1127 2095 1689 1816 1326 1603 1440 1508 1507 1228 1526 1431 1718 1722 1238 1239 1910 1624 1619 1995 1428 1523 1227 1900 1406 1426 1616 1227 1515 1804 1621 1240 1518 1237 1131 1416 1042 1707 1237 1423 1434 1137 1237 1329 1613 1533 1322 1614 1724 1407 944 1324 1235 1894 1525 1334 944 1134 1719 1813 1612 941 1331 1133 1329 1239 1236 1231 1042 1625 1598 1039 1817 1342 1333 1425 1138 1132 1428 1425 1624 1432 1141 1217 1328 1245 1331 1234 1325 1327 939 945 1240 1139 1324 1233 1232 1233 948 1239 1135 1618 846 950 1033 1331 845 1041 1132 1231 941 1039 1040 1040 1042 1140 1038 933 947 941 1034 1126 750 751 939 748 847 941 944 1040 852 1038 1038 941 947 942 1034 941 940 937 842 1137 937 1036 1036 750 847 1035 943 940 942 847 846 846 848 940 944 846 751 747 747 840 843 847 845 844 937 844 953 845 748 750 750 746 751 746 844 841 749 750 748 749 751 749 750 750 749 750 840 847 846 748 848 844 843 751 751 751 743 750 750 750 750 748 750 749 750 751 745 746 751 750 747 747 745 749 749 749 743 750 747 750 748 745 747 752 752 751 747 749 751 751 749 744 750 750 747 752 751 751 752 751 751 748 750 750 750 750 752 749 752 751 747 751 752 751 749 744 749 750 748 751 747 750 750 749 751 751 752 751 750 751 750 751 750 751 752 751 752 750 752 751 751 748 752 750 748 752 751 752 650 750 751 653 750 752 748 752 750 749 653 752 653 751 652 752 649 752 752 748 750 752 752 749 752 751 652 653 648 652 652 652 652 652 652 653 652 652 653 652 652 652 652 652 652 652 648 652 652 652 652 652 652 648 652 652 652 652 652 653 653 648 652 653 652 652 652 652 652 652 652 652 652 653 652 652 653 652 648 653 652 652 652 652 653 653 652 652 652 652 652 652 653 653 652 652 652 652 652 652 652 652 653 652 653 652 653 652 652 652 652 652 653 652 648 653 652 652 652 653 653 652 652 652 652 653 652 652 652 652 652 652 652 653 652 652 652 652 652 652 652 652 652 652 652 652 652 652 652 652 653 652 652 652 652 652 652 652 652 653 652 652 652 653 652 652 648 652 652 652 652 652 652 652 648 652 653 648 652 652 652 653 652 648 652 652 652 648 652 652 652 652 652 652 652 648 652 652 653 652 652 653 648 652 648 648 652 652 652 652 652 653 652 652 648 652 652 653 653 652 652 652 652 648 652 652 652 652 652 652 652 652 652 652 652 652 653 648 652 653 652 653 648 652 652 652 652 652 648 652 652 652 652 652 652 652 652 652 652 648 653 652 652 648 652 652 652 652 652 652 652 652 652 652 652 652 653 652 652 652 652 652 652 652 652 652 652 653 652 652 652 652 652 652 652 648 652 652 653 648 652 652 652 652 652 652 652 652 652 652 652 652 652 652 652 648 652 652 652 652 652 652

Tree=0
num_leaves=22
num_cat=0
split_feature=0 0 8 8 0 3 1 1 1 1 1 1 5 5 1 5 5 1 5 5 6
split_gain=7.28619e+10 9.67375e+09 4.15603e+09 5.40542e+07 3.36965e+06 1.52588e-05 1.90735e-06 1.90735e-06 1.90735e-06 9.53674e-07 9.53674e-07 9.53674e-07 9.53674e-07 4.76837e-07 1.19209e-07 1.19209e-07 1.19209e-07 5.96046e-08 2.98023e-08 7.45058e-09 3.72529e-09
threshold=1.5000000000000002 1.0000000180025095e-35 17.880989065295353 3.1414976819818601 4.5000000000000009 1.0000000180025095e-35 34.500000000000007 32.500000000000007 33.500000000000007 31.500000000000004 14.500000000000002 26.500000000000004 28.500000000000004 27.500000000000004 22.500000000000004 10.500000000000002 30.500000000000004 33.500000000000007 25.500000000000004 28.500000000000004 6.5000000000000009
decision_type=2 2 2 2 2 2 2 2 2 2 2 2 2 2 2 2 2 2 2 2 2
left_child=1 5 3 4 6 12 7 -2 -6 10 -3 -5 -1 -13 -4 -10 -14 -9 -8 20 -20
right_child=2 9 14 11 8 -7 18 17 15 -11 -12 13 16 -15 -16 -17 -18 -19 19 -21 -22
leaf_value=-728.89518195001165 -601.73385077325383 -674.83557806817578 -632.22516089288274 -605.74581061212109 -602.74617682305859 -728.89518195001165 -601.73385077325383 -601.73385077325383 -602.74617682305859 -674.83557806817578 -674.83557806817578 -605.74581061212109 -728.89518195001165 -605.74581061212109 -632.22516089288274 -602.74617682305859 -728.89518195001165 -601.73385077325383 -601.73385077325383 -601.73385077325383 -601.73385077325383
leaf_weight=2515 15429 6348 10748 12607 15517 13683 335 408 239 1593 8779 3429 141 402 6011 503 46 383 21 28 22
leaf_count=2515 15429 6348 10748 12607 15517 13683 335 408 239 1593 8779 3429 141 402 6011 503 46 383 21 28 22
internal_value=-641.046 -701.592 -610.714 -603.405 -602.234 -728.895 -601.734 -601.734 -602.746 -674.836 -674.836 -605.746 -728.895 -605.746 -632.225 -602.746 -728.895 -601.734 -601.734 -601.734 -601.734
internal_weight=99187 33105 66082 49323 32885 16385 16626 16220 16259 16720 15127 16438 2702 3831 16759 742 187 791 406 71 43
internal_count=99187 33105 66082 49323 32885 16385 16626 16220 16259 16720 15127 16438 2702 3831 16759 742 187 791 406 71 43
is_linear=0
shrinkage=1


Tree=1
num_leaves=17
num_cat=0
split_feature=0 0 8 8 0 5 4 5 3 3 5 5 6 3 5 7
split_gain=6.57578e+10 8.73056e+09 3.75081e+09 4.87839e+07 3.04111e+06 7.62939e-06 1.90735e-06 1.90735e-06 9.53674e-07 9.53674e-07 2.38419e-07 2.38419e-07 1.19209e-07 5.96046e-08 2.98023e-08 2.98023e-08
threshold=1.5000000000000002 1.0000000180025095e-35 17.880989065295353 3.1414976819818601 4.5000000000000009 30.500000000000004 1.0000000180025095e-35 30.500000000000004 3.5000000000000004 1.5000000000000002 16.500000000000004 21.500000000000004 9.5000000000000018 2.5000000000000004 26.500000000000004 4.5000000000000009
decision_type=2 2 2 2 2 2 2 2 2 2 2 2 2 2 2 2
left_child=1 5 3 4 7 -1 -6 -2 -3 10 -5 -10 -7 -4 -15 -14
right_child=2 8 13 9 6 12 -8 -9 11 -11 -12 -13 15 14 -16 -17
leaf_value=-83.457135009765636 37.34613037109375 -32.100512695312503 8.3793853759765629 33.534768676757814 36.384420776367186 -83.457135009765636 36.384420776367186 37.34613037109375 -32.100512695312503 33.534768676757814 33.534768676757814 -32.100512695312503 -83.457135009765636 8.3793853759765629 8.3793853759765629 -83.457135009765636
leaf_weight=16063 16318 13081 10399 2518 4758 227 11501 308 2491 11672 2248 1148 58 5411 949 37
leaf_count=16063 16318 13081 10399 2518 4758 227 11501 308 2491 11672 2248 1148 58 5411 949 37
internal_value=-2.15989e-07 -57.519 28.8152 35.7589 36.8706 -83.4571 36.3844 37.3461 -32.1005 33.5348 33.5348 -32.1005 -83.4571 8.37939 8.37939 -83.4571
internal_weight=99187 33105 66082 49323 32885 16385 16259 16626 16720 16438 4766 3639 322 16759 6360 95
internal_count=99187 33105 66082 49323 32885 16385 16259 16626 16720 16438 4766 3639 322 16759 6360 95
is_linear=0
shrinkage=0.05


Tree=2
num_leaves=10
num_cat=0
split_feature=0 0 8 8 0 3 5 3 5
split_gain=5.93464e+10 7.87933e+09 3.38511e+09 4.40275e+07 2.74461e+06 7.62939e-06 3.8147e-06 9.53674e-07 2.38419e-07
threshold=1.5000000000000002 1.0000000180025095e-35 17.880989065295353 3.1414976819818601 4.5000000000000009 2.5000000000000004 19.500000000000004 3.5000000000000004 29.500000000000004
decision_type=2 2 2 2 2 2 2 2 2
left_child=1 5 3 4 -2 6 -1 -3 -9
right_child=2 7 -4 -5 -6 -7 -8 8 -10
leaf_value=-79.284277343750006 35.478823852539065 -30.495486450195315 7.9604164123535162 31.858029174804688 34.565197753906254 -79.284277343750006 -79.284277343750006 -30.495486450195315 -30.495486450195315
leaf_weight=6230 16626 13081 16759 16438 16259 6310 3845 3424 215
leaf_count=6230 16626 13081 16759 16438 16259 6310 3845 3424 215
internal_value=-4.0168e-07 -54.643 27.3744 33.9709 35.0271 -79.2843 -79.2843 -30.4955 -30.4955
internal_weight=99187 33105 66082 49323 32885 16385 10075 16720 3639
internal_count=99187 33105 66082 49323 32885 16385 10075 16720 3639
is_linear=0
shrinkage=0.05


Tree=3
num_leaves=15
num_cat=0
split_feature=0 0 8 8 0 1 5 1 1 1 1 5 1 1
split_gain=5.35602e+10 7.11109e+09 3.05506e+09 3.97347e+07 2.47701e+06 7.62939e-06 1.90735e-06 9.53674e-07 9.53674e-07 9.53674e-07 4.76837e-07 4.76837e-07 1.19209e-07 5.96046e-08
threshold=1.5000000000000002 1.0000000180025095e-35 17.880989065295353 3.1414976819818601 4.5000000000000009 32.500000000000007 3.5000000000000004 28.500000000000004 29.500000000000004 11.500000000000002 10.500000000000002 26.500000000000004 31.500000000000004 25.500000000000004
decision_type=2 2 2 2 2 2 2 2 2 2 2 2 2 2
left_child=1 5 3 4 7 -1 13 -2 -5 10 -6 -7 -10 -3
right_child=2 6 -4 8 9 11 -8 -9 12 -11 -12 -13 -14 -15
leaf_value=-75.320062255859384 33.704882812500003 -28.970712280273439 7.5623954772949222 30.265130615234376 32.836938476562501 -75.320062255859384 -28.970712280273439 33.704882812500003 30.265130615234376 32.836938476562501 32.836938476562501 -75.320062255859384 30.265130615234376 -28.970712280273439
leaf_weight=15203 13852 1181 16759 14160 4650 1002 15134 2774 762 11213 396 180 1516 405
leaf_count=15203 13852 1181 16759 14160 4650 1002 15134 2774 762 11213 396 180 1516 405
internal_value=3.81097e-07 -51.9109 26.0057 32.2724 33.2758 -75.3201 -28.9707 33.7049 30.2651 32.8369 32.8369 -75.3201 30.2651 -28.9707
internal_weight=99187 33105 66082 49323 32885 16385 16720 16626 16438 16259 5046 1182 2278 1586
internal_count=99187 33105 66082 49323 32885 16385 16720 16626 16438 16259 5046 1182 2278 1586
is_linear=0
shrinkage=0.05


Tree=4
num_leaves=11
num_cat=0
split_feature=0 0 8 8 0 1 1 1 5 6
split_gain=4.8338e+10 6.41776e+09 2.75719e+09 3.58606e+07 2.23549e+06 3.8147e-06 9.53674e-07 9.53674e-07 2.38419e-07 5.96046e-08
threshold=1.5000000000000002 1.0000000180025095e-35 17.880989065295353 3.1414976819818601 4.5000000000000009 33.500000000000007 32.500000000000007 5.5000000000000009 27.500000000000004 11.500000000000002
decision_type=2 2 2 2 2 2 2 2 2 2
left_child=1 5 3 4 6 -1 -2 -6 -7 -4
right_child=2 -3 9 -5 7 8 -8 -9 -10 -11
leaf_value=-71.554058837890622 32.019638061523438 -27.52217712402344 7.1842758178710939 28.751873779296876 31.195092773437501 -71.554058837890622 32.019638061523438 31.195092773437501 -71.554058837890622 7.1842758178710939
leaf_weight=15583 15429 16720 15306 16438 2627 711 1197 13632 91 1453
leaf_count=15583 15429 16720 15306 16438 2627 711 1197 13632 91 1453
internal_value=4.01842e-07 -49.3153 24.7054 30.6588 31.612 -71.5541 32.0196 31.1951 -71.5541 7.18428
internal_weight=99187 33105 66082 49323 32885 16385 16626 16259 802 16759
internal_count=99187 33105 66082 49323 32885 16385 16626 16259 802 16759
is_linear=0
shrinkage=0.05


Tree=5
num_leaves=13
num_cat=0
split_feature=0 0 8 8 0 1 1 1 1 1 3 5
split_gain=4.36251e+10 5.79203e+09 2.48837e+09 3.23642e+07 2.01754e+06 3.8147e-06 9.53674e-07 9.53674e-07 9.53674e-07 1.19209e-07 1.19209e-07 5.96046e-08
threshold=1.5000000000000002 1.0000000180025095e-35 17.880989065295353 3.1414976819818601 4.5000000000000009 32.500000000000007 34.500000000000007 34.500000000000007 30.500000000000004 3.5000000000000004 3.5000000000000004 13.500000000000002
decision_type=2 2 2 2 2 2 2 2 2 2 2 2
left_child=1 5 3 4 -2 -1 -3 -5 -6 -4 -10 -12
right_child=2 6 9 7 8 -7 -8 -9 10 -11 11 -13
leaf_value=-67.976354980468756 30.418655395507812 -26.146069335937501 6.8250617980957031 27.314279174804689 29.63533630371094 -67.976354980468756 -26.146069335937501 27.314279174804689 29.63533630371094 6.8250617980957031 29.63533630371094 29.63533630371094
leaf_weight=15203 16626 16341 1621 16040 14345 1182 379 398 1139 15138 333 442
leaf_count=15203 16626 16341 1621 16040 14345 1182 379 398 1139 15138 333 442
internal_value=-2.65502e-07 -46.8496 23.4702 29.1258 30.0314 -67.9764 -26.1461 27.3143 29.6353 6.82506 29.6353 29.6353
internal_weight=99187 33105 66082 49323 32885 16385 16720 16438 16259 16759 1914 775
internal_count=99187 33105 66082 49323 32885 16385 16720 16438 16259 16759 1914 775
is_linear=0
shrinkage=0.05


Tree=6
num_leaves=9
num_cat=0
split_feature=0 0 0 0 0 5 5 1
split_gain=3.93716e+10 5.22731e+09 5.83702e+08 1.67718e+09 1.5897e+07 3.8147e-06 4.76837e-07 5.96046e-08
threshold=1.5000000000000002 1.0000000180025095e-35 3.5000000000000004 2.5000000000000004 4.5000000000000009 4.5000000000000009 30.500000000000004 30.500000000000004
decision_type=2 2 2 2 2 2 2 2
left_child=1 5 3 -2 -4 -1 -3 -5
right_child=2 6 4 7 -6 -7 -8 -9
leaf_value=-64.577539062500009 28.897723388671878 -24.838764953613282 25.948565673828128 6.4838088989257816 28.153570556640627 -64.577539062500009 -24.838764953613282 6.4838088989257816
leaf_weight=2187 16626 16407 16438 14714 16259 14198 313 2045
leaf_count=2187 16626 16407 16438 14714 16259 14198 313 2045
internal_value=1.06918e-08 -44.5071 22.2966 17.6461 27.045 -64.5775 -24.8388 6.48381
internal_weight=99187 33105 66082 33385 32697 16385 16720 16759
internal_count=99187 33105 66082 33385 32697 16385 16720 16759
is_linear=0
shrinkage=0.05


Tree=7
num_leaves=14
num_cat=0
split_feature=0 0 8 8 0 2 4 5 5 6 6 3 5
split_gain=3.55329e+10 4.71765e+09 2.02679e+09 2.63609e+07 1.6433e+06 3.8147e-06 1.90735e-06 4.76837e-07 4.76837e-07 4.76837e-07 1.19209e-07 2.98023e-08 2.98023e-08
threshold=1.5000000000000002 1.0000000180025095e-35 17.880989065295353 3.1414976819818601 4.5000000000000009 1.0000000180025095e-35 1.0000000180025095e-35 29.500000000000004 14.500000000000002 3.5000000000000004 2.5000000000000004 2.5000000000000004 30.500000000000004
decision_type=2 2 2 2 2 2 2 2 2 2 2 2 2
left_child=1 5 3 4 -2 6 7 -1 -3 10 -5 -4 -9
right_child=2 8 11 9 -6 -7 -8 12 -10 -11 -12 -13 -14
leaf_value=-61.348663330078125 27.452838134765628 -23.596826171875001 6.1596183776855469 24.651136779785158 26.745892333984376 -61.348663330078125 -61.348663330078125 -61.348663330078125 -23.596826171875001 24.651136779785158 24.651136779785158 6.1596183776855469 -61.348663330078125
leaf_weight=2180 16626 7608 10399 2622 16259 8134 5952 66 9112 12406 1410 6360 53
leaf_count=2180 16626 7608 10399 2622 16259 8134 5952 66 9112 12406 1410 6360 53
internal_value=-1.20225e-08 -42.2817 21.1818 26.2861 27.1033 -61.3487 -61.3487 -61.3487 -23.5968 24.6511 24.6511 6.15962 -61.3487
internal_weight=99187 33105 66082 49323 32885 16385 8251 2299 16720 16438 4032 16759 119
internal_count=99187 33105 66082 49323 32885 16385 8251 2299 16720 16438 4032 16759 119
is_linear=0
shrinkage=0.05


Tree=8
num_leaves=12
num_cat=0
split_feature=0 0 8 8 0 1 1 1 1 1 1
split_gain=3.20684e+10 4.25767e+09 1.82918e+09 2.37907e+07 1.48307e+06 3.8147e-06 9.53674e-07 4.76837e-07 4.76837e-07 4.76837e-07 2.98023e-08
threshold=1.5000000000000002 1.0000000180025095e-35 17.880989065295353 3.1414976819818601 4.5000000000000009 31.500000000000004 24.500000000000004 29.500000000000004 32.500000000000007 30.500000000000004 28.500000000000004
decision_type=2 2 2 2 2 2 2 2 2 2 2
left_child=1 5 3 4 6 -1 -2 -3 -5 -6 -4
right_child=2 7 10 8 9 -7 -8 -9 -10 -11 -12
leaf_value=-58.281225585937506 26.080194091796876 -22.416984558105469 5.8516372680664066 23.4185791015625 25.408596801757813 -58.281225585937506 26.080194091796876 -22.416984558105469 23.4185791015625 25.408596801757813 5.8516372680664066
leaf_weight=14806 11535 14338 13933 15283 14345 1579 5091 2382 1155 1914 2826
leaf_count=14806 11535 14338 13933 15283 14345 1579 5091 2382 1155 1914 2826
internal_value=1.16748e-07 -40.1676 20.1227 24.9718 25.7481 -58.2812 26.0802 -22.417 23.4186 25.4086 5.85164
internal_weight=99187 33105 66082 49323 32885 16385 16626 16720 16438 16259 16759
internal_count=99187 33105 66082 49323 32885 16385 16626 16720 16438 16259 16759
is_linear=0
shrinkage=0.05


Tree=9
num_leaves=15
num_cat=0
split_feature=0 0 8 8 0 6 1 1 1 1 1 1 1 6
split_gain=2.89418e+10 3.84255e+09 1.65083e+09 2.14711e+07 1.33848e+06 3.8147e-06 4.76837e-07 4.76837e-07 4.76837e-07 4.76837e-07 5.96046e-08 2.98023e-08 1.49012e-08 1.49012e-08
threshold=1.5000000000000002 1.0000000180025095e-35 17.880989065295353 3.1414976819818601 4.5000000000000009 11.500000000000002 33.500000000000007 34.500000000000007 9.5000000000000018 21.500000000000004 20.500000000000004 34.500000000000007 1.0000000180025095e-35 10.500000000000002
decision_type=2 2 2 2 2 2 2 2 2 2 2 2 2 2
left_child=1 5 3 4 6 -1 -2 8 -3 -6 12 -8 -4 -9
right_child=2 7 10 -5 9 -7 11 13 -10 -11 -12 -13 -14 -15
leaf_value=-55.367169189453129 24.776185607910158 -21.296134948730469 5.5590553283691406 22.247650146484375 24.138166809082033 -55.367169189453129 24.776185607910158 -21.296134948730469 -21.296134948730469 24.138166809082033 5.5590553283691406 24.776185607910158 5.5590553283691406 -21.296134948730469
leaf_weight=15034 15837 4333 388 16438 10069 1351 383 311 12008 6190 6820 406 9551 68
leaf_count=15034 15837 4333 388 16438 10069 1351 383 311 12008 6190 6820 406 9551 68
internal_value=-4.64677e-07 -38.1593 19.1166 23.7232 24.4607 -55.3672 24.7762 -21.2961 -21.2961 24.1382 5.55906 24.7762 5.55906 -21.2961
internal_weight=99187 33105 66082 49323 32885 16385 16626 16720 16341 16259 16759 789 9939 379
internal_count=99187 33105 66082 49323 32885 16385 16626 16720 16341 16259 16759 789 9939 379
is_linear=0
shrinkage=0.05


Tree=10
num_leaves=13
num_cat=0
split_feature=0 0 8 8 0 1 1 1 1 1 1 1
split_gain=2.612e+10 3.4679e+09 1.48988e+09 1.93777e+07 1.20797e+06 4.76837e-07 4.76837e-07 4.76837e-07 4.76837e-07 4.76837e-07 1.19209e-07 2.98023e-08
threshold=1.5000000000000002 1.0000000180025095e-35 17.880989065295353 3.1414976819818601 4.5000000000000009 33.500000000000007 34.500000000000007 26.500000000000004 33.500000000000007 26.500000000000004 33.500000000000007 34.500000000000007
decision_type=2 2 2 2 2 2 2 2 2 2 2 2
left_child=1 -1 3 4 5 -2 7 -3 -5 -6 -11 -7
right_child=2 6 -4 8 9 11 -8 -9 -10 10 -12 -13
leaf_value=-52.598809814453126 23.537376403808594 -20.231329345703127 5.2811027526855474 21.135267639160158 22.931259155273438 23.537376403808594 -20.231329345703127 -20.231329345703127 21.135267639160158 22.931259155273438 22.931259155273438 23.537376403808594
leaf_weight=16385 15837 12704 16759 15655 12364 383 379 3637 783 3153 742 406
leaf_count=16385 15837 12704 16759 15655 12364 383 379 3637 783 3153 742 406
internal_value=-3.25546e-07 -36.2513 18.1608 22.537 23.2377 23.5374 -20.2313 -20.2313 21.1353 22.9313 22.9313 23.5374
internal_weight=99187 33105 66082 49323 32885 16626 16720 16341 16438 16259 3895 789
internal_count=99187 33105 66082 49323 32885 16626 16720 16341 16438 16259 3895 789
is_linear=0
shrinkage=0.05


Tree=11
num_leaves=16
num_cat=0
split_feature=0 0 8 8 0 1 1 1 1 1 1 6 1 5 5
split_gain=2.35733e+10 3.12978e+09 1.34461e+09 1.74883e+07 1.0902e+06 1.90735e-06 9.53674e-07 4.76837e-07 4.76837e-07 4.76837e-07 4.76837e-07 4.76837e-07 2.98023e-08 2.98023e-08 4.65661e-10
threshold=1.5000000000000002 1.0000000180025095e-35 17.880989065295353 3.1414976819818601 4.5000000000000009 25.500000000000004 31.500000000000004 1.0000000180025095e-35 32.500000000000007 33.500000000000007 23.500000000000004 2.5000000000000004 34.500000000000007 3.5000000000000004 24.500000000000004
decision_type=2 2 2 2 2 2 2 2 2 2 2 2 2 2 2
left_child=1 5 3 4 -2 -1 11 -3 -5 10 -6 -7 -4 -10 -14
right_child=2 7 12 8 9 6 -8 -9 13 -11 -12 -13 14 -15 -16
leaf_value=-49.968869018554692 22.36050720214844 -19.219763183593752 5.0170475006103521 20.078504943847658 21.784695434570313 -49.968869018554692 -49.968869018554692 -19.219763183593752 20.078504943847658 21.784695434570313 21.784695434570313 -49.968869018554692 5.0170475006103521 20.078504943847658 5.0170475006103521
leaf_weight=12074 16626 414 16343 15283 10868 464 1579 16306 127 742 4649 2268 336 1028 80
leaf_count=12074 16626 414 16343 15283 10868 464 1579 16306 127 742 4649 2268 336 1028 80
internal_value=-4.04846e-07 -34.4387 17.2527 21.4102 22.0758 -49.9689 -49.9689 -19.2198 20.0785 21.7847 21.7847 -49.9689 5.01705 20.0785 5.01705
internal_weight=99187 33105 66082 49323 32885 16385 4311 16720 16438 16259 15517 2732 16759 1155 416
internal_count=99187 33105 66082 49323 32885 16385 4311 16720 16438 16259 15517 2732 16759 1155 416
is_linear=0
shrinkage=0.05


Tree=12
num_leaves=12
num_cat=0
split_feature=0 0 8 8 0 1 1 1 1 5 5
split_gain=2.12749e+10 2.82463e+09 1.21351e+09 1.57832e+07 983904 1.90735e-06 4.76837e-07 4.76837e-07 2.98023e-08 1.49012e-08 1.86265e-09
threshold=1.5000000000000002 1.0000000180025095e-35 17.880989065295353 3.1414976819818601 4.5000000000000009 5.5000000000000009 5.5000000000000009 33.500000000000007 32.500000000000007 22.500000000000004 27.500000000000004
decision_type=2 2 2 2 2 2 2 2 2 2 2
left_child=1 5 3 4 6 -1 -2 -6 -4 -9 -10
right_child=2 -3 8 -5 7 -7 -8 9 10 -11 -12
leaf_value=-47.470425415039067 21.242481994628907 -18.258773803710938 4.7661952972412109 19.074580383300781 20.695460510253909 -47.470425415039067 21.242481994628907 20.695460510253909 4.7661952972412109 20.695460510253909 4.7661952972412109
leaf_weight=2736 2872 16720 15560 16438 15517 13649 13754 535 1068 207 131
leaf_count=2736 2872 16720 15560 16438 15517 13649 13754 535 1068 207 131
internal_value=-1.02572e-08 -32.7168 16.3901 20.3397 20.972 -47.4704 21.2425 20.6955 4.7662 20.6955 4.7662
internal_weight=99187 33105 66082 49323 32885 16385 16626 16259 16759 742 1199
internal_count=99187 33105 66082 49323 32885 16385 16626 16259 16759 742 1199
is_linear=0
shrinkage=0.05


Tree=13
num_leaves=10
num_cat=0
split_feature=0 0 8 8 0 5 3 5 6
split_gain=1.92006e+10 2.54923e+09 1.0952e+09 1.42444e+07 887972 1.90735e-06 4.76837e-07 4.76837e-07 5.96046e-08
threshold=1.5000000000000002 1.0000000180025095e-35 17.880989065295353 3.1414976819818601 4.5000000000000009 29.500000000000004 1.0000000180025095e-35 6.5000000000000009 10.500000000000002
decision_type=2 2 2 2 2 2 2 2 2
left_child=1 5 3 4 7 -1 -5 8 -2
right_child=2 -3 -4 6 -6 -7 -8 -9 -10
leaf_value=-45.096902465820314 20.18035888671875 -17.345835876464843 4.5278854370117188 18.120851135253908 19.660688781738283 -45.096902465820314 18.120851135253908 20.18035888671875 20.18035888671875
leaf_weight=15590 2710 16720 16759 2777 16259 795 13661 13381 535
leaf_count=15590 2710 16720 16759 2777 16259 795 13661 13381 535
internal_value=4.63731e-07 -31.081 15.5706 19.3227 19.9234 -45.0969 18.1209 20.1804 20.1804
internal_weight=99187 33105 66082 49323 32885 16385 16438 16626 3245
internal_count=99187 33105 66082 49323 32885 16385 16438 16626 3245
is_linear=0
shrinkage=0.05


Tree=14
num_leaves=19
num_cat=0
split_feature=0 0 8 8 0 1 5 1 1 1 1 1 5 2 1 1 5 5
split_gain=1.73285e+10 2.30068e+09 9.88415e+08 1.28555e+07 801397 1.90735e-06 1.90735e-06 4.76837e-07 4.76837e-07 2.38419e-07 2.38419e-07 2.38419e-07 2.38419e-07 5.96046e-08 1.49012e-08 1.49012e-08 7.45058e-09 4.65661e-10
threshold=1.5000000000000002 1.0000000180025095e-35 17.880989065295353 3.1414976819818601 4.5000000000000009 34.500000000000007 26.500000000000004 34.500000000000007 29.500000000000004 33.500000000000007 12.500000000000002 33.500000000000007 12.500000000000002 1.0000000180025095e-35 34.500000000000007 34.500000000000007 28.500000000000004 28.500000000000004
decision_type=2 2 2 2 2 2 2 2 2 2 2 2 2 2 2 2 2 2
left_child=1 5 3 4 7 6 -1 -2 12 10 -3 -5 -6 -7 -4 16 -11 -16
right_child=2 9 14 11 8 13 -8 -9 -10 15 -12 -13 -14 -15 17 -17 -18 -19
leaf_value=-42.842059326171878 19.171340942382812 -16.478543090820313 4.3014911651611332 17.214808654785156 18.677653503417968 -42.842059326171878 -42.842059326171878 19.171340942382812 18.677653503417968 -16.478543090820313 -16.478543090820313 17.214808654785156 18.677653503417968 -42.842059326171878 4.3014911651611332 -16.478543090820313 -16.478543090820313 4.3014911651611332
leaf_weight=13701 16220 5535 16343 15655 5515 203 2296 406 2299 377 10396 783 8445 185 386 379 33 30
leaf_count=13701 16220 5535 16343 15655 5515 203 2296 406 2299 377 10396 783 8445 185 386 379 33 30
internal_value=1.55127e-07 -29.5269 14.7921 18.3565 18.9273 -42.8421 -42.8421 19.1713 18.6777 -16.4785 -16.4785 17.2148 18.6777 -42.8421 4.30149 -16.4785 -16.4785 4.30149
internal_weight=99187 33105 66082 49323 32885 16385 15997 16626 16259 16720 15931 16438 13960 388 16759 789 410 416
internal_count=99187 33105 66082 49323 32885 16385 15997 16626 16259 16720 15931 16438 13960 388 16759 789 410 416
is_linear=0
shrinkage=0.05


Tree=15
num_leaves=16
num_cat=0
split_feature=0 0 0 0 0 1 5 1 1 1 1 5 5 5 5
split_gain=1.5639e+10 2.07636e+09 2.31855e+08 6.662e+08 6.3145e+06 1.90735e-06 1.90735e-06 4.76837e-07 4.76837e-07 2.38419e-07 2.38419e-07 2.98023e-08 2.98023e-08 1.49012e-08 7.45058e-09
threshold=1.5000000000000002 1.0000000180025095e-35 3.5000000000000004 2.5000000000000004 4.5000000000000009 34.500000000000007 1.5000000000000002 33.500000000000007 25.500000000000004 34.500000000000007 32.500000000000007 18.500000000000004 29.500000000000004 23.500000000000004 29.500000000000004
decision_type=2 2 2 2 2 2 2 2 2 2 2 2 2 2 2
left_child=1 5 3 7 10 6 -1 -2 -6 -3 -4 -7 -12 -9 -11
right_child=2 9 4 -5 8 11 -8 13 -10 14 12 -13 -14 -15 -16
leaf_value=-40.699954223632815 18.212773132324219 -15.654617309570312 16.354067993164062 4.0864166259765629 17.743771362304688 -40.699954223632815 -40.699954223632815 18.212773132324219 17.743771362304688 -15.654617309570312 16.354067993164062 -40.699954223632815 16.354067993164062 18.212773132324219 -15.654617309570312
leaf_weight=527 15837 16341 15283 16759 11994 220 15470 594 4265 352 1101 168 54 195 27
leaf_count=527 15837 16341 15283 16759 11994 220 15470 594 4265 352 1101 168 54 195 27
internal_value=1.93714e-07 -28.0506 14.0524 11.1215 17.0451 -40.7 -40.7 18.2128 17.7438 -15.6546 16.3541 -40.7 16.3541 18.2128 -15.6546
internal_weight=99187 33105 66082 33385 32697 16385 15997 16626 16259 16720 16438 388 1155 789 379
internal_count=99187 33105 66082 33385 32697 16385 15997 16626 16259 16720 16438 388 1155 789 379
is_linear=0
shrinkage=0.05


Tree=16
num_leaves=15
num_cat=0
split_feature=0 0 8 8 0 1 1 1 1 1 1 2 6 6
split_gain=1.41142e+10 1.87392e+09 8.0507e+08 1.04709e+07 652741 4.76837e-07 2.38419e-07 2.38419e-07 2.38419e-07 5.96046e-08 1.49012e-08 3.72529e-09 1.86265e-09 4.65661e-10
threshold=1.5000000000000002 1.0000000180025095e-35 17.880989065295353 3.1414976819818601 4.5000000000000009 7.5000000000000009 34.500000000000007 30.500000000000004 32.500000000000007 6.5000000000000009 34.500000000000007 1.0000000180025095e-35 6.5000000000000009 11.500000000000002
decision_type=2 2 2 2 2 2 2 2 2 2 2 2 2 2
left_child=1 -1 3 4 5 9 7 -3 -6 -2 -4 -8 -13 -12
right_child=2 6 10 -5 8 -7 11 -9 -10 -11 13 12 -14 -15
leaf_value=-38.664956665039064 17.302134704589843 -14.871885681152344 3.8820957183837894 15.536364746093751 16.856582641601562 17.302134704589843 -14.871885681152344 -14.871885681152344 16.856582641601562 17.302134704589843 3.8820957183837894 -14.871885681152344 -14.871885681152344 3.8820957183837894
leaf_weight=16385 3277 14733 16343 16438 15131 12974 201 1608 1128 375 386 94 84 30
leaf_count=16385 3277 14733 16343 16438 15131 12974 201 1608 1128 375 386 94 84 30
internal_value=3.13181e-07 -26.648 13.3498 16.5668 17.0818 17.3021 -14.8719 -14.8719 16.8566 17.3021 3.8821 -14.8719 -14.8719 3.8821
internal_weight=99187 33105 66082 49323 32885 16626 16720 16341 16259 3652 16759 379 178 416
internal_count=99187 33105 66082 49323 32885 16626 16720 16341 16259 3652 16759 379 178 416
is_linear=0
shrinkage=0.05


Tree=17
num_leaves=10
num_cat=0
split_feature=0 0 0 0 0 1 1 5 5
split_gain=1.2738e+10 1.69121e+09 1.88847e+08 5.42624e+08 5.1432e+06 2.38419e-07 2.38419e-07 2.38419e-07 1.49012e-08
threshold=1.5000000000000002 1.0000000180025095e-35 3.5000000000000004 2.5000000000000004 4.5000000000000009 33.500000000000007 1.0000000180025095e-35 26.500000000000004 29.500000000000004
decision_type=2 2 2 2 2 2 2 2 2
left_child=1 -1 3 -2 6 -3 -4 -6 -5
right_child=2 5 4 8 7 -7 -8 -9 -10
leaf_value=-36.731710815429686 16.43702850341797 -14.128291320800782 14.759545898437501 3.6879909515380862 16.013752746582032 -14.128291320800782 14.759545898437501 16.013752746582032 3.6879909515380862
leaf_weight=16385 16626 15931 384 15941 13896 789 16054 2363 818
leaf_count=16385 16626 15931 384 15941 13896 789 16054 2363 818
internal_value=-1.50773e-07 -25.3156 12.6823 10.0371 15.3832 -14.1283 14.7595 16.0138 3.68799
internal_weight=99187 33105 66082 33385 32697 16720 16438 16259 16759
internal_count=99187 33105 66082 33385 32697 16720 16438 16259 16759
is_linear=0
shrinkage=0.05


Tree=18
num_leaves=21
num_cat=0
split_feature=8 8 8 8 8 1 1 1 1 1 1 5 1 5 1 1 5 5 5 5
split_gain=1.14961e+10 1.52632e+09 6.55735e+08 8.52863e+06 531660 9.53674e-07 9.53674e-07 2.38419e-07 2.38419e-07 2.38419e-07 2.38419e-07 5.96046e-08 2.98023e-08 2.98023e-08 1.49012e-08 1.49012e-08 1.49012e-08 7.45058e-09 7.45058e-09 4.65661e-10
threshold=52.425875455843425 100.76088410813625 17.880989065295353 3.1414976819818601 1.1355182978549423 33.500000000000007 23.500000000000004 31.500000000000004 32.500000000000007 32.500000000000007 33.500000000000007 29.500000000000004 33.500000000000007 1.5000000000000002 34.500000000000007 34.500000000000007 29.500000000000004 28.500000000000004 3.5000000000000004 3.5000000000000004
decision_type=2 2 2 2 2 2 2 2 2 2 2 2 2 2 2 2 2 2 2 2
left_child=2 8 3 4 7 6 -3 -1 -2 -5 -6 -7 -9 -10 -4 -14 17 -12 -17 -16
right_child=1 5 14 9 10 11 -8 12 13 -11 16 -13 15 -15 19 18 -18 -19 -20 -21
leaf_value=15.615176391601564 -13.421876525878908 -34.895123291015629 3.5035915374755859 14.021568298339844 15.213066101074219 -34.895123291015629 -34.895123291015629 15.615176391601564 -13.421876525878908 14.021568298339844 15.213066101074219 -34.895123291015629 15.615176391601564 -13.421876525878908 3.5035915374755859 15.615176391601564 15.213066101074219 15.213066101074219 15.615176391601564 3.5035915374755859
leaf_weight=15053 15524 10894 16343 15283 15517 765 4689 784 40 1155 679 37 383 1156 43 41 40 23 365 373
leaf_count=15053 15524 10894 16343 15283 15517 765 4689 784 40 1155 679 37 383 1156 43 41 40 23 365 373
internal_value=2.425e-07 -24.0499 12.0482 14.9515 15.4164 -34.8951 -34.8951 15.6152 -13.4219 14.0216 15.2131 -34.8951 15.6152 -13.4219 3.50359 15.6152 15.2131 15.2131 15.6152 3.50359
internal_weight=99187 33105 66082 49323 32885 16385 15583 16626 16720 16438 16259 802 1573 1196 16759 789 742 702 406 416
internal_count=99187 33105 66082 49323 32885 16385 15583 16626 16720 16438 16259 802 1573 1196 16759 789 742 702 406 416
is_linear=0
shrinkage=0.05


Tree=19
num_leaves=18
num_cat=0
split_feature=0 0 8 8 0 1 1 1 1 1 5 1 5 5 5 5 5
split_gain=1.03752e+10 1.3775e+09 5.918e+08 7.69707e+06 479825 9.53674e-07 2.38419e-07 2.38419e-07 2.38419e-07 2.38419e-07 2.38419e-07 1.19209e-07 1.49012e-08 1.49012e-08 1.49012e-08 7.45058e-09 7.45058e-09
threshold=1.5000000000000002 1.0000000180025095e-35 17.880989065295353 3.1414976819818601 4.5000000000000009 28.500000000000004 32.500000000000007 33.500000000000007 32.500000000000007 29.500000000000004 29.500000000000004 17.500000000000004 21.500000000000004 12.500000000000002 14.500000000000002 28.500000000000004 30.500000000000004
decision_type=2 2 2 2 2 2 2 2 2 2 2 2 2 2 2 2 2
left_child=1 5 3 4 6 -1 -2 11 -5 -6 -7 -3 -4 -8 -10 -9 -12
right_child=2 7 12 8 9 10 13 15 14 -11 16 -13 -14 -15 -16 -17 -18
leaf_value=-33.150369262695314 14.834417724609375 -12.750782775878907 3.3284118652343753 13.320491027832032 14.452412414550782 -33.150369262695314 14.834417724609375 -12.750782775878907 13.320491027832032 14.452412414550782 -33.150369262695314 -12.750782775878907 3.3284118652343753 14.834417724609375 13.320491027832032 -12.750782775878907 -33.150369262695314
leaf_weight=13650 15429 8347 11515 15283 13960 2593 489 719 537 2299 88 7584 5244 708 618 70 54
leaf_count=13650 15429 8347 11515 15283 13960 2593 489 719 537 2299 88 7584 5244 708 618 70 54
internal_value=1.21532e-09 -22.8474 11.4458 14.2039 14.6455 -33.1504 14.8344 -12.7508 13.3205 14.4524 -33.1504 -12.7508 3.32841 14.8344 13.3205 -12.7508 -33.1504
internal_weight=99187 33105 66082 49323 32885 16385 16626 16720 16438 16259 2735 15931 16759 1197 1155 789 142
internal_count=99187 33105 66082 49323 32885 16385 16626 16720 16438 16259 2735 15931 16759 1197 1155 789 142
is_linear=0
shrinkage=0.05


Tree=20
num_leaves=17
num_cat=0
split_feature=0 0 0 0 0 1 1 1 5 1 1 1 5 5 6 1
split_gain=9.36363e+09 1.24319e+09 1.3882e+08 3.98879e+08 3.78072e+06 9.53674e-07 2.38419e-07 2.38419e-07 2.38419e-07 1.19209e-07 1.19209e-07 1.19209e-07 2.98023e-08 2.98023e-08 1.49012e-08 7.45058e-09
threshold=1.5000000000000002 1.0000000180025095e-35 3.5000000000000004 2.5000000000000004 4.5000000000000009 28.500000000000004 30.500000000000004 30.500000000000004 15.500000000000002 32.500000000000007 24.500000000000004 2.5000000000000004 29.500000000000004 23.500000000000004 6.5000000000000009 32.500000000000007
decision_type=2 2 2 2 2 2 2 2 2 2 2 2 2 2 2 2
left_child=1 5 3 6 10 -1 -2 -6 -7 -3 11 14 -8 -9 -4 -5
right_child=2 9 4 15 7 8 12 13 -10 -11 -12 -13 -14 -15 -16 -17
leaf_value=-31.492849731445315 14.092697143554688 -12.113243865966798 12.654465484619141 3.1619913101196291 13.729791259765626 -31.492849731445315 14.092697143554688 13.729791259765626 -31.492849731445315 -12.113243865966798 12.654465484619141 12.654465484619141 14.092697143554688 13.729791259765626 12.654465484619141 3.1619913101196291
leaf_weight=13650 14644 15524 605 15560 14345 1367 1889 1465 1368 1196 4996 10256 93 449 581 1199
leaf_count=13650 14644 15524 605 15560 14345 1367 1889 1465 1368 1196 4996 10256 93 449 581 1199
internal_value=-5.52992e-08 -21.705 10.8735 8.60557 13.1892 -31.4928 14.0927 13.7298 -31.4928 -12.1132 12.6545 12.6545 14.0927 13.7298 12.6545 3.16199
internal_weight=99187 33105 66082 33385 32697 16385 16626 16259 2735 16720 16438 11442 1982 1914 1186 16759
internal_count=99187 33105 66082 33385 32697 16385 16626 16259 2735 16720 16438 11442 1982 1914 1186 16759
is_linear=0
shrinkage=0.05


Tree=21
num_leaves=11
num_cat=0
split_feature=0 0 0 0 0 1 5 1 1 7
split_gain=8.45068e+09 1.12198e+09 1.25285e+08 3.59988e+08 3.41211e+06 9.53674e-07 9.53674e-07 1.19209e-07 1.19209e-07 1.19209e-07
threshold=1.5000000000000002 1.0000000180025095e-35 3.5000000000000004 2.5000000000000004 4.5000000000000009 33.500000000000007 5.5000000000000009 12.500000000000002 34.500000000000007 1.0000000180025095e-35
decision_type=2 2 2 2 2 2 2 2 2 2
left_child=1 5 3 -2 8 6 -1 -3 9 -4
right_child=2 7 4 -5 -6 -7 -8 -9 -10 -11
leaf_value=-29.918206787109376 13.3880615234375 -11.507582092285157 12.021742248535157 3.0038917541503909 13.043302917480469 -29.918206787109376 -29.918206787109376 -11.507582092285157 12.021742248535157 12.021742248535157
leaf_weight=2592 16626 5535 2344 16759 16259 802 12991 11185 398 13696
leaf_count=2592 16626 5535 2344 16759 16259 802 12991 11185 398 13696
internal_value=3.24984e-08 -20.6197 10.3298 8.17529 12.5297 -29.9182 -29.9182 -11.5076 12.0217 12.0217
internal_weight=99187 33105 66082 33385 32697 16385 15583 16720 16438 16040
internal_count=99187 33105 66082 33385 32697 16385 15583 16720 16438 16040
is_linear=0
shrinkage=0.05


Tree=22
num_leaves=11
num_cat=0
split_feature=0 0 8 8 0 1 1 1 1 1
split_gain=7.62674e+09 1.01259e+09 4.35028e+08 5.65806e+06 352715 2.38419e-07 2.38419e-07 1.19209e-07 1.19209e-07 7.45058e-09
threshold=1.5000000000000002 1.0000000180025095e-35 17.880989065295353 3.1414976819818601 4.5000000000000009 22.500000000000004 13.500000000000002 4.5000000000000009 29.500000000000004 21.500000000000004
decision_type=2 2 2 2 2 2 2 2 2 2
left_child=1 -1 3 4 5 -2 -5 -3 -6 -4
right_child=2 7 9 6 8 -7 -8 -9 -10 -11
leaf_value=-28.422296142578126 12.718658447265625 -10.932202911376955 2.8536972045898441 11.420655059814454 12.391136932373048 12.718658447265625 11.420655059814454 -10.932202911376955 12.391136932373048 2.8536972045898441
leaf_weight=16385 10722 2386 10357 5897 13960 5904 10541 14334 2299 6402
leaf_count=16385 10722 2386 10357 5897 13960 5904 10541 14334 2299 6402
internal_value=-4.96206e-08 -19.5888 9.81335 12.1781 12.5567 12.7187 11.4207 -10.9322 12.3911 2.8537
internal_weight=99187 33105 66082 49323 32885 16626 16438 16720 16259 16759
internal_count=99187 33105 66082 49323 32885 16626 16438 16720 16259 16759
is_linear=0
shrinkage=0.05


Tree=23
num_leaves=15
num_cat=0
split_feature=0 0 8 8 0 5 3 5 5 5 5 6 5 6
split_gain=6.88313e+09 9.13862e+08 3.92612e+08 5.1064e+06 318324 9.53674e-07 1.19209e-07 1.19209e-07 1.19209e-07 1.19209e-07 2.98023e-08 2.98023e-08 7.45058e-09 1.86265e-09
threshold=1.5000000000000002 1.0000000180025095e-35 17.880989065295353 3.1414976819818601 4.5000000000000009 21.500000000000004 3.5000000000000004 17.500000000000004 30.500000000000004 24.500000000000004 30.500000000000004 10.500000000000002 28.500000000000004 9.5000000000000018
decision_type=2 2 2 2 2 2 2 2 2 2 2 2 2 2
left_child=1 5 3 4 7 -1 -3 -2 -5 -6 -8 -11 -4 -10
right_child=2 6 12 8 9 -7 10 -9 13 11 -12 -13 -14 -15
leaf_value=-27.00118103027344 12.082725524902344 -10.385592651367189 2.7110122680664066 10.849622344970705 11.771580505371094 -27.00118103027344 -10.385592651367189 12.082725524902344 10.849622344970705 11.771580505371094 -10.385592651367189 11.771580505371094 2.7110122680664066 10.849622344970705
leaf_weight=11325 9345 13081 15426 16109 12838 5060 3563 7281 237 2864 76 557 1333 92
leaf_count=11325 9345 13081 15426 16109 12838 5060 3563 7281 237 2864 76 557 1333 92
internal_value=8.47805e-08 -18.6093 9.32268 11.5692 11.9289 -27.0012 -10.3856 12.0827 10.8496 11.7716 -10.3856 11.7716 2.71101 10.8496
internal_weight=99187 33105 66082 49323 32885 16385 16720 16626 16438 16259 3639 3421 16759 329
internal_count=99187 33105 66082 49323 32885 16385 16720 16626 16438 16259 3639 3421 16759 329
is_linear=0
shrinkage=0.05


Tree=24
num_leaves=18
num_cat=0
split_feature=0 0 8 8 0 1 1 1 1 5 1 2 5 2 5 5 5
split_gain=6.21203e+09 8.2476e+08 3.54333e+08 4.60852e+06 287289 9.53674e-07 1.19209e-07 1.19209e-07 1.19209e-07 1.19209e-07 7.45058e-09 3.72529e-09 3.72529e-09 1.86265e-09 1.86265e-09 9.31323e-10 9.31323e-10
threshold=1.5000000000000002 1.0000000180025095e-35 17.880989065295353 3.1414976819818601 4.5000000000000009 26.500000000000004 34.500000000000007 34.500000000000007 34.500000000000007 29.500000000000004 30.500000000000004 1.0000000180025095e-35 29.500000000000004 1.0000000180025095e-35 23.500000000000004 16.500000000000004 30.500000000000004
decision_type=2 2 2 2 2 2 2 2 2 2 2 2 2 2 2 2 2
left_child=1 5 3 4 6 -1 -2 -3 -6 -7 -4 -8 -10 15 -13 -9 -12
right_child=2 7 10 -5 8 9 11 13 12 -11 16 14 -14 -15 -16 -17 -18
leaf_value=-25.651123046875 11.478589630126955 -9.8663131713867198 2.5754617691040043 10.307141876220705 11.183000946044922 -25.651123046875 11.478589630126955 -9.8663131713867198 11.183000946044922 -25.651123046875 2.5754617691040043 11.478589630126955 11.183000946044922 -9.8663131713867198 11.478589630126955 -9.8663131713867198 2.5754617691040043
leaf_weight=12479 16220 16341 14714 16438 15888 3716 211 107 346 190 2014 152 25 178 43 94 31
leaf_count=12479 16220 16341 14714 16438 15888 3716 211 107 346 190 2014 152 25 178 43 94 31
internal_value=-1.84164e-08 -17.6789 8.85655 10.9907 11.3324 -25.6511 11.4786 -9.86631 11.183 -25.6511 2.57546 11.4786 11.183 -9.86631 11.4786 -9.86631 2.57546
internal_weight=99187 33105 66082 49323 32885 16385 16626 16720 16259 3906 16759 406 371 379 195 201 2045
internal_count=99187 33105 66082 49323 32885 16385 16626 16720 16259 3906 16759 406 371 379 195 201 2045
is_linear=0
shrinkage=0.05


Tree=25
num_leaves=16
num_cat=0
split_feature=0 0 0 0 0 1 1 1 1 5 5 5 1 1 5
split_gain=5.60635e+09 7.44346e+08 8.31167e+07 2.38823e+08 2.26366e+06 4.76837e-07 4.76837e-07 1.19209e-07 1.19209e-07 1.19209e-07 5.96046e-08 1.49012e-08 7.45058e-09 7.45058e-09 1.16415e-10
threshold=1.5000000000000002 1.0000000180025095e-35 3.5000000000000004 2.5000000000000004 4.5000000000000009 30.500000000000004 26.500000000000004 34.500000000000007 33.500000000000007 28.500000000000004 24.500000000000004 30.500000000000004 34.500000000000007 29.500000000000004 28.500000000000004
decision_type=2 2 2 2 2 2 2 2 2 2 2 2 2 2 2
left_child=1 5 3 7 8 6 -1 9 -4 -2 -7 -12 13 -5 -14
right_child=2 -3 4 12 -6 10 -8 -9 -10 -11 11 -13 14 -15 -16
leaf_value=-24.368566894531252 10.904660034179688 -9.3729972839355469 9.7917846679687504 2.4466886520385742 10.623851013183595 -24.368566894531252 -24.368566894531252 10.904660034179688 9.7917846679687504 10.904660034179688 -24.368566894531252 -24.368566894531252 2.4466886520385742 2.4466886520385742 2.4466886520385742
leaf_weight=12479 14884 16720 15655 14334 16259 1549 1933 406 783 1336 386 38 386 2009 30
leaf_count=12479 14884 16720 15655 14334 16259 1549 1933 406 783 1336 386 38 386 2009 30
internal_value=-3.13638e-09 -16.7949 8.41372 6.65883 10.2055 -24.3686 -24.3686 10.9047 9.79178 10.9047 -24.3686 -24.3686 2.44669 2.44669 2.44669
internal_weight=99187 33105 66082 33385 32697 16385 14412 16626 16438 16220 1973 424 16759 16343 416
internal_count=99187 33105 66082 33385 32697 16385 14412 16626 16438 16220 1973 424 16759 16343 416
is_linear=0
shrinkage=0.05


Tree=26
num_leaves=15
num_cat=0
split_feature=0 0 8 8 0 1 1 1 1 1 1 5 2 5
split_gain=5.05973e+09 6.71773e+08 2.88606e+08 3.75368e+06 233997 1.19209e-07 1.19209e-07 1.19209e-07 1.19209e-07 5.96046e-08 1.49012e-08 1.49012e-08 1.86265e-09 9.31323e-10
threshold=1.5000000000000002 1.0000000180025095e-35 17.880989065295353 3.1414976819818601 4.5000000000000009 34.500000000000007 17.500000000000004 33.500000000000007 18.500000000000004 28.500000000000004 34.500000000000007 27.500000000000004 1.0000000180025095e-35 19.500000000000004
decision_type=2 2 2 2 2 2 2 2 2 2 2 2 2 2
left_child=1 -1 3 4 5 6 -2 -5 -6 -3 11 -11 13 -12
right_child=2 9 -4 7 8 -7 -8 -9 -10 10 12 -13 -14 -15
leaf_value=-23.150138854980469 10.359426879882813 -8.904347229003907 2.3243541717529297 9.302194976806641 10.092658996582031 10.359426879882813 10.359426879882813 9.302194976806641 10.092658996582031 -8.904347229003907 -8.904347229003907 -8.904347229003907 -8.904347229003907 -8.904347229003907
leaf_weight=16385 8329 13926 16759 15655 8508 406 7891 783 7751 2135 131 280 178 70
leaf_count=16385 8329 13926 16759 15655 8508 406 7891 783 7751 2135 131 280 178 70
internal_value=-4.3194e-08 -15.9552 7.99303 9.91914 10.2275 10.3594 10.3594 9.30219 10.0927 -8.90435 -8.90435 -8.90435 -8.90435 -8.90435
internal_weight=99187 33105 66082 49323 32885 16626 16220 16438 16259 16720 2794 2415 379 201
internal_count=99187 33105 66082 49323 32885 16626 16220 16438 16259 16720 2794 2415 379 201
is_linear=0
shrinkage=0.05


Tree=27
num_leaves=13
num_cat=0
split_feature=8 8 8 8 8 1 1 1 1 1 5 5
split_gain=4.56641e+09 6.06275e+08 2.60467e+08 3.38769e+06 211184 1.19209e-07 5.96046e-08 3.72529e-09 3.72529e-09 9.31323e-10 4.65661e-10 1.16415e-10
threshold=52.425875455843425 100.76088410813625 17.880989065295353 3.1414976819818601 1.1355182978549423 32.500000000000007 9.5000000000000018 34.500000000000007 28.500000000000004 33.500000000000007 25.500000000000004 26.500000000000004
decision_type=2 2 2 2 2 2 2 2 2 2 2 2
left_child=2 -2 3 4 5 -1 -5 8 -4 10 -10 -9
right_child=1 -3 7 6 -6 -7 -8 11 9 -11 -12 -13
leaf_value=9.8414558410644535 -8.4591300964355476 -21.99263153076172 2.2081363677978518 8.8370857238769531 9.5880256652832028 9.8414558410644535 8.8370857238769531 2.2081363677978518 2.2081363677978518 2.2081363677978518 2.2081363677978518 2.2081363677978518
leaf_weight=15429 16720 16385 13933 4297 16259 1197 12141 365 1658 379 373 51
leaf_count=15429 16720 16385 13933 4297 16259 1197 12141 365 1658 379 373 51
internal_value=3.80943e-08 -15.1574 7.59338 9.42319 9.71615 9.84146 8.83709 2.20814 2.20814 2.20814 2.20814 2.20814
internal_weight=99187 33105 66082 49323 32885 16626 16438 16759 16343 2410 2031 416
internal_count=99187 33105 66082 49323 32885 16626 16438 16759 16343 2410 2031 416
is_linear=0
shrinkage=0.05


Tree=28
num_leaves=13
num_cat=0
split_feature=0 0 8 8 0 1 1 1 1 1 5 5
split_gain=4.12119e+09 5.47163e+08 2.35072e+08 3.05739e+06 190593 9.53674e-07 1.19209e-07 1.19209e-07 1.19209e-07 5.96046e-08 3.72529e-09 1.86265e-09
threshold=1.5000000000000002 1.0000000180025095e-35 17.880989065295353 3.1414976819818601 4.5000000000000009 30.500000000000004 34.500000000000007 23.500000000000004 33.500000000000007 33.500000000000007 1.5000000000000002 25.500000000000004
decision_type=2 2 2 2 2 2 2 2 2 2 2 2
left_child=1 5 3 4 6 -1 -2 -3 -6 -5 -10 -8
right_child=2 7 -4 9 8 -7 11 -9 10 -11 -12 -13
leaf_value=-20.892999267578126 9.3493827819824222 -8.036173248291016 2.0977296829223633 8.3952308654785153 9.1086242675781257 -20.892999267578126 9.3493827819824222 -8.036173248291016 9.1086242675781257 8.3952308654785153 9.1086242675781257 9.3493827819824222
leaf_weight=14412 16220 11098 16759 15655 15517 1973 335 5622 20 783 722 71
leaf_count=14412 16220 11098 16759 15655 15517 1973 335 5622 20 783 722 71
internal_value=7.17022e-08 -14.3995 7.21371 8.95203 9.23035 -20.893 9.34938 -8.03617 9.10862 8.39523 9.10862 9.34938
internal_weight=99187 33105 66082 49323 32885 16385 16626 16720 16259 16438 742 406
internal_count=99187 33105 66082 49323 32885 16385 16626 16720 16259 16438 742 406
is_linear=0
shrinkage=0.05


Tree=29
num_leaves=16
num_cat=0
split_feature=8 8 8 8 8 1 1 1 1 1 4 1 5 5 5
split_gain=3.71937e+09 4.93815e+08 2.12152e+08 2.75929e+06 172011 4.76837e-07 5.96046e-08 5.96046e-08 5.96046e-08 5.96046e-08 2.98023e-08 1.49012e-08 1.49012e-08 7.45058e-09 3.72529e-09
threshold=52.425875455843425 100.76088410813625 17.880989065295353 3.1414976819818601 1.1355182978549423 34.500000000000007 25.500000000000004 31.500000000000004 34.500000000000007 10.500000000000002 1.0000000180025095e-35 7.5000000000000009 11.500000000000002 21.500000000000004 9.5000000000000018
decision_type=2 2 2 2 2 2 2 2 2 2 2 2 2 2 2
left_child=2 7 3 4 6 -3 -1 -2 9 11 -8 -5 -7 -13 -4
right_child=1 5 14 8 -6 12 10 -9 -10 -11 -12 13 -14 -15 -16
leaf_value=8.8819137573242184 -7.6343650817871094 -19.848350524902344 1.9928430557250978 7.9754699707031254 8.6531929016113285 -19.848350524902344 8.8819137573242184 -7.6343650817871094 7.9754699707031254 7.9754699707031254 8.8819137573242184 7.9754699707031254 -19.848350524902344 7.9754699707031254 1.9928430557250978
leaf_weight=12292 15127 15997 4887 3489 16259 138 1141 1593 398 11353 3193 837 250 361 11872
leaf_count=12292 15127 15997 4887 3489 16259 138 1141 1593 398 11353 3193 837 250 361 11872
internal_value=-1.39657e-07 -13.6796 6.85303 8.50442 8.76883 -19.8484 8.88191 -7.63437 7.97547 7.97547 8.88191 7.97547 -19.8484 7.97547 1.99284
internal_weight=99187 33105 66082 49323 32885 16385 16626 16720 16438 16040 4334 4687 388 1198 16759
internal_count=99187 33105 66082 49323 32885 16385 16626 16720 16438 16040 4334 4687 388 1198 16759
is_linear=0
shrinkage=0.05


Tree=30
num_leaves=16
num_cat=0
split_feature=0 0 8 8 0 5 2 3 5 6 3 5 4 5 5
split_gain=3.35673e+09 4.45668e+08 1.91467e+08 2.49027e+06 155239 4.76837e-07 5.96046e-08 5.96046e-08 5.96046e-08 5.96046e-08 2.98023e-08 2.98023e-08 7.45058e-09 7.45058e-09 3.72529e-09
threshold=1.5000000000000002 1.0000000180025095e-35 17.880989065295353 3.1414976819818601 4.5000000000000009 30.500000000000004 1.0000000180025095e-35 2.5000000000000004 30.500000000000004 1.5000000000000002 1.5000000000000002 25.500000000000004 1.0000000180025095e-35 27.500000000000004 25.500000000000004
decision_type=2 2 2 2 2 2 2 2 2 2 2 2 2 2 2
left_child=1 5 3 4 7 -1 10 -2 -3 -5 12 -8 -6 -13 -4
right_child=2 8 14 9 6 -7 11 -9 -10 -11 -12 13 -14 -15 -16
leaf_value=-18.855932617187502 8.4378181457519528 -7.2526466369628908 1.8932010650634767 7.5766960144042974 8.2205337524414066 -18.855932617187502 8.2205337524414066 8.4378181457519528 -7.2526466369628908 7.5766960144042974 8.2205337524414066 8.2205337524414066 8.2205337524414066 8.2205337524414066 1.8932010650634767
leaf_weight=16063 10329 16407 13727 1383 404 322 6721 6297 313 15055 5779 515 1921 919 3032
leaf_count=16063 10329 16407 13727 1383 404 322 6721 6297 313 15055 5779 515 1921 919 3032
internal_value=8.10345e-09 -12.9956 6.51038 8.0792 8.33039 -18.8559 8.22053 8.43782 -7.25265 7.5767 8.22053 8.22053 8.22053 8.22053 1.8932
internal_weight=99187 33105 66082 49323 32885 16385 16259 16626 16720 16438 8104 8155 2325 1434 16759
internal_count=99187 33105 66082 49323 32885 16385 16259 16626 16720 16438 8104 8155 2325 1434 16759
is_linear=0
shrinkage=0.05


Tree=31
num_leaves=17
num_cat=0
split_feature=0 0 8 8 0 1 1 1 1 1 5 5 1 5 5 5
split_gain=3.02945e+09 4.02215e+08 1.72799e+08 2.24746e+06 140103 2.38419e-07 2.38419e-07 1.19209e-07 5.96046e-08 5.96046e-08 5.96046e-08 7.45058e-09 3.72529e-09 3.72529e-09 1.16415e-10 1.16415e-10
threshold=1.5000000000000002 1.0000000180025095e-35 17.880989065295353 3.1414976819818601 4.5000000000000009 34.500000000000007 22.500000000000004 28.500000000000004 33.500000000000007 22.500000000000004 1.5000000000000002 27.500000000000004 33.500000000000007 23.500000000000004 29.500000000000004 16.500000000000004
decision_type=2 2 2 2 2 2 2 2 2 2 2 2 2 2 2 2
left_child=1 5 3 4 8 6 -1 10 -2 -6 -8 -7 -4 -10 15 -14
right_child=2 -3 12 -5 9 11 7 -9 13 -11 -12 -13 14 -15 -16 -17
leaf_value=-17.913136291503907 8.0159271240234382 -6.8900146484375 1.7985408782958985 7.1978614807128913 7.8095069885253912 -17.913136291503907 -17.913136291503907 -17.913136291503907 8.0159271240234382 7.8095069885253912 -17.913136291503907 -17.913136291503907 1.7985408782958985 8.0159271240234382 1.7985408782958985 1.7985408782958985
leaf_weight=10481 15837 16720 15964 16438 10479 342 101 2347 594 5780 3068 46 415 195 34 346
leaf_count=10481 15837 16720 15964 16438 10479 342 101 2347 594 5780 3068 46 415 195 34 346
internal_value=-1.10583e-07 -12.3458 6.18486 7.67524 7.91387 -17.9131 -17.9131 -17.9131 8.01593 7.80951 -17.9131 -17.9131 1.79854 8.01593 1.79854 1.79854
internal_weight=99187 33105 66082 49323 32885 16385 15997 5516 16626 16259 3169 388 16759 789 795 761
internal_count=99187 33105 66082 49323 32885 16385 15997 5516 16626 16259 3169 388 16759 789 795 761
is_linear=0
shrinkage=0.05


Tree=32
num_leaves=11
num_cat=0
split_feature=0 0 8 8 0 3 4 5 5 5
split_gain=2.73408e+09 3.62999e+08 1.55951e+08 2.02833e+06 126443 5.96046e-08 5.96046e-08 2.98023e-08 3.72529e-09 2.32831e-10
threshold=1.5000000000000002 1.0000000180025095e-35 17.880989065295353 3.1414976819818601 4.5000000000000009 2.5000000000000004 1.0000000180025095e-35 14.500000000000002 29.500000000000004 30.500000000000004
decision_type=2 2 2 2 2 2 2 2 2 2
left_child=1 -1 3 4 -2 -6 -5 -8 -4 -10
right_child=2 -3 8 6 5 -7 7 -9 9 -11
leaf_value=-17.017478942871094 7.6151306152343752 -6.5455139160156257 1.7086139678955079 6.8379684448242193 7.4190315246582035 7.4190315246582035 6.8379684448242193 6.8379684448242193 1.7086139678955079 1.7086139678955079
leaf_weight=16385 16626 16720 15941 4566 10057 6202 5519 6353 511 307
leaf_count=16385 16626 16720 15941 4566 10057 6202 5519 6353 511 307
internal_value=-3.22869e-08 -11.7285 5.87561 7.29148 7.51818 7.41903 6.83797 6.83797 1.70861 1.70861
internal_weight=99187 33105 66082 49323 32885 16259 16438 11872 16759 818
internal_count=99187 33105 66082 49323 32885 16259 16438 11872 16759 818
is_linear=0
shrinkage=0.05


Tree=33
num_leaves=15
num_cat=0
split_feature=8 8 8 8 8 1 1 1 1 1 1 5 5 5
split_gain=2.46751e+09 3.27607e+08 1.40746e+08 1.83057e+06 114115 2.38419e-07 5.96046e-08 5.96046e-08 5.96046e-08 2.98023e-08 1.49012e-08 7.45058e-09 3.72529e-09 1.86265e-09
threshold=52.425875455843425 100.76088410813625 17.880989065295353 3.1414976819818601 1.1355182978549423 30.500000000000004 1.0000000180025095e-35 23.500000000000004 28.500000000000004 32.500000000000007 29.500000000000004 26.500000000000004 30.500000000000004 23.500000000000004
decision_type=2 2 2 2 2 2 2 2 2 2 2 2 2 2
left_child=2 7 3 4 6 -3 13 -2 -6 -7 -9 -10 -4 -1
right_child=1 5 12 -5 8 9 -8 10 11 -11 -12 -13 -14 -15
leaf_value=7.2343742370605471 -6.2182376861572273 -16.166604614257814 1.6231832504272461 6.4960700988769533 7.0480796813964846 -16.166604614257814 7.2343742370605471 -6.2182376861572273 7.0480796813964846 -16.166604614257814 -6.2182376861572273 7.0480796813964846 1.6231832504272461 7.2343742370605471
leaf_weight=313 11098 14412 16452 16438 13571 791 16224 3240 2303 1182 2382 385 307 89
leaf_count=313 11098 14412 16452 16438 13571 791 16224 3240 2303 1182 2382 385 307 89
internal_value=1.13596e-07 -11.1421 5.58183 6.92691 7.14227 -16.1666 7.23437 -6.21824 7.04808 -16.1666 -6.21824 7.04808 1.62318 7.23437
internal_weight=99187 33105 66082 49323 32885 16385 16626 16720 16259 1973 5622 2688 16759 402
internal_count=99187 33105 66082 49323 32885 16385 16626 16720 16259 1973 5622 2688 16759 402
is_linear=0
shrinkage=0.05


Tree=34
num_leaves=15
num_cat=0
split_feature=0 0 8 8 0 5 1 1 1 1 1 1 1 5
split_gain=2.22692e+09 2.95665e+08 1.27023e+08 1.65209e+06 102989 2.38419e-07 5.96046e-08 5.96046e-08 2.98023e-08 2.98023e-08 2.98023e-08 2.98023e-08 1.86265e-09 1.16415e-10
threshold=1.5000000000000002 1.0000000180025095e-35 17.880989065295353 3.1414976819818601 4.5000000000000009 30.500000000000004 32.500000000000007 32.500000000000007 31.500000000000004 33.500000000000007 32.500000000000007 25.500000000000004 33.500000000000007 27.500000000000004
decision_type=2 2 2 2 2 2 2 2 2 2 2 2 2 2
left_child=1 5 3 4 6 -1 -2 -6 -3 10 11 -5 -4 -14
right_child=2 8 12 9 7 -7 -8 -9 -10 -11 -12 -13 13 -15
leaf_value=-15.358274841308594 6.8726554870605474 -5.9073261260986332 1.5420240402221681 6.1712661743164068 6.6956756591796882 -15.358274841308594 6.8726554870605474 6.6956756591796882 -5.9073261260986332 6.1712661743164068 6.1712661743164068 6.1712661743164068 1.5420240402221681 1.5420240402221681
leaf_weight=16063 15429 15127 15964 12227 15131 322 1197 1128 1593 783 372 3056 709 86
leaf_count=16063 15429 15127 15964 12227 15131 322 1197 1128 1593 783 372 3056 709 86
internal_value=-1.12608e-07 -10.585 5.30274 6.58056 6.78515 -15.3583 6.87266 6.69568 -5.90733 6.17127 6.17127 6.17127 1.54202 1.54202
internal_weight=99187 33105 66082 49323 32885 16385 16626 16259 16720 16438 15655 15283 16759 795
internal_count=99187 33105 66082 49323 32885 16385 16626 16259 16720 16438 15655 15283 16759 795
is_linear=0
shrinkage=0.05


Tree=35
num_leaves=15
num_cat=0
split_feature=0 0 8 8 0 5 5 1 1 6 1 1 5 5
split_gain=2.0098e+09 2.66838e+08 1.14639e+08 1.49101e+06 92947.7 2.38419e-07 5.96046e-08 2.98023e-08 2.98023e-08 1.49012e-08 1.86265e-09 1.16415e-10 5.82077e-11 5.82077e-11
threshold=1.5000000000000002 1.0000000180025095e-35 17.880989065295353 3.1414976819818601 4.5000000000000009 29.500000000000004 24.500000000000004 33.500000000000007 25.500000000000004 7.5000000000000009 33.500000000000007 34.500000000000007 27.500000000000004 4.5000000000000009
decision_type=2 2 2 2 2 2 2 2 2 2 2 2 2 2
left_child=1 5 3 4 -2 -1 -5 -3 -6 -7 -4 12 -12 -13
right_child=2 7 10 6 8 9 -8 -9 -10 -11 11 13 -14 -15
leaf_value=-14.590361022949219 6.5290229797363288 -5.6119598388671879 1.4649228096008302 5.8627029418945318 6.3608921051025398 -14.590361022949219 5.8627029418945318 -5.6119598388671879 6.3608921051025398 -14.590361022949219 1.4649228096008302 1.4649228096008302 1.4649228096008302 1.4649228096008302
leaf_weight=15590 16626 15931 15964 12956 11994 445 3482 789 4265 350 339 58 40 358
leaf_count=15590 16626 15931 15964 12956 11994 445 3482 789 4265 350 339 58 40 358
internal_value=-7.50059e-09 -10.0557 5.03761 6.25153 6.4459 -14.5904 5.8627 -5.61196 6.36089 -14.5904 1.46492 1.46492 1.46492 1.46492
internal_weight=99187 33105 66082 49323 32885 16385 16438 16720 16259 795 16759 795 379 416
internal_count=99187 33105 66082 49323 32885 16385 16438 16720 16259 795 16759 795 379 416
is_linear=0
shrinkage=0.05


Tree=36
num_leaves=23
num_cat=0
split_feature=0 0 8 8 0 1 1 1 1 1 5 5 1 1 1 5 5 5 6 1 1 5
split_gain=1.81384e+09 2.40821e+08 1.03461e+08 1.34564e+06 83885.4 2.38419e-07 2.98023e-08 2.98023e-08 2.98023e-08 2.98023e-08 2.98023e-08 7.45058e-09 3.72529e-09 1.86265e-09 1.86265e-09 1.86265e-09 9.31323e-10 9.31323e-10 9.31323e-10 2.32831e-10 1.16415e-10 5.82077e-11
threshold=1.5000000000000002 1.0000000180025095e-35 17.880989065295353 3.1414976819818601 4.5000000000000009 33.500000000000007 21.500000000000004 32.500000000000007 33.500000000000007 29.500000000000004 2.5000000000000004 26.500000000000004 32.500000000000007 30.500000000000004 34.500000000000007 6.5000000000000009 29.500000000000004 5.5000000000000009 7.5000000000000009 33.500000000000007 34.500000000000007 25.500000000000004
decision_type=2 2 2 2 2 2 2 2 2 2 2 2 2 2 2 2 2 2 2 2 2 2
left_child=1 5 3 4 6 -1 -2 -3 9 -6 -5 -7 -11 -4 -9 -10 18 -16 -14 -15 21 -21
right_child=2 7 13 10 8 11 -8 14 15 12 -12 -13 16 19 17 -17 -18 -19 -20 20 -22 -23
leaf_value=-13.860842895507814 6.2025718688964844 -5.3313617706298828 1.3916767120361329 5.5695678710937502 6.0428474426269538 -13.860842895507814 6.2025718688964844 -5.3313617706298828 6.0428474426269538 6.0428474426269538 5.5695678710937502 -13.860842895507814 6.0428474426269538 1.3916767120361329 -5.3313617706298828 6.0428474426269538 6.0428474426269538 -5.3313617706298828 6.0428474426269538 1.3916767120361329 1.3916767120361329 1.3916767120361329
leaf_weight=15583 10290 15524 14714 1124 13960 681 6336 817 140 1171 15314 121 220 1250 68 602 23 311 143 314 416 65
leaf_count=15583 10290 15524 14714 1124 13960 681 6336 817 140 1171 15314 121 220 1250 68 602 23 311 143 314 416 65
internal_value=3.52483e-08 -9.55295 4.78573 5.93896 6.1236 -13.8608 6.20257 -5.33136 6.04285 6.04285 5.56957 -13.8608 6.04285 1.39168 -5.33136 6.04285 6.04285 -5.33136 6.04285 1.39168 1.39168 1.39168
internal_weight=99187 33105 66082 49323 32885 16385 16626 16720 16259 15517 16438 802 1557 16759 1196 742 386 379 363 2045 795 379
internal_count=99187 33105 66082 49323 32885 16385 16626 16720 16259 15517 16438 802 1557 16759 1196 742 386 379 363 2045 795 379
is_linear=0
shrinkage=0.05


Tree=37
num_leaves=16
num_cat=0
split_feature=0 0 8 8 0 1 1 1 1 5 1 5 5 5 5
split_gain=1.63699e+09 2.17341e+08 9.33738e+07 1.21444e+06 75706.4 2.38419e-07 2.98023e-08 2.98023e-08 2.98023e-08 2.98023e-08 1.86265e-09 9.31323e-10 9.31323e-10 4.65661e-10 4.65661e-10
threshold=1.5000000000000002 1.0000000180025095e-35 17.880989065295353 3.1414976819818601 4.5000000000000009 30.500000000000004 34.500000000000007 34.500000000000007 34.500000000000007 24.500000000000004 27.500000000000004 28.500000000000004 28.500000000000004 24.500000000000004 30.500000000000004
decision_type=2 2 2 2 2 2 2 2 2 2 2 2 2 2 2
left_child=1 5 3 4 6 -1 9 -5 -6 -2 -4 -8 13 -9 -12
right_child=2 -3 10 7 8 -7 11 12 -10 -11 14 -13 -14 -15 -16
leaf_value=-13.167800903320312 5.8924430847167972 -5.0647933959960945 1.3220928192138672 5.2910896301269537 5.7407051086425787 -13.167800903320312 5.8924430847167972 5.2910896301269537 5.7407051086425787 5.8924430847167972 1.3220928192138672 5.8924430847167972 5.2910896301269537 5.2910896301269537 1.3220928192138672
leaf_weight=14412 12820 16720 13141 16040 15888 1973 378 318 371 3400 3563 28 26 54 55
leaf_count=14412 12820 16720 13141 16040 15888 1973 378 318 371 3400 3563 28 26 54 55
internal_value=4.64093e-08 -9.0753 4.54644 5.64201 5.81742 -13.1678 5.89244 5.29109 5.74071 5.89244 1.32209 5.89244 5.29109 5.29109 1.32209
internal_weight=99187 33105 66082 49323 32885 16385 16626 16438 16259 16220 16759 406 398 372 3618
internal_count=99187 33105 66082 49323 32885 16385 16626 16438 16259 16220 16759 406 398 372 3618
is_linear=0
shrinkage=0.05


Tree=38
num_leaves=16
num_cat=0
split_feature=0 0 8 8 0 1 1 1 1 5 5 5 1 1 1
split_gain=1.47739e+09 1.9615e+08 8.42699e+07 1.09603e+06 68324.8 1.19209e-07 1.19209e-07 2.98023e-08 2.98023e-08 2.98023e-08 2.98023e-08 2.98023e-08 3.72529e-09 1.86265e-09 4.65661e-10
threshold=1.5000000000000002 1.0000000180025095e-35 17.880989065295353 3.1414976819818601 4.5000000000000009 32.500000000000007 26.500000000000004 33.500000000000007 29.500000000000004 26.500000000000004 2.5000000000000004 30.500000000000004 34.500000000000007 25.500000000000004 31.500000000000004
decision_type=2 2 2 2 2 2 2 2 2 2 2 2 2 2 2
left_child=1 5 3 4 7 6 -1 9 -6 -2 -5 -8 -10 -4 -15
right_child=2 -3 13 10 8 -7 11 -9 12 -11 -12 -13 -14 14 -16
leaf_value=-12.509410858154297 5.5978210449218757 -4.811553955078125 1.2559882164001466 5.0265350341796875 5.4536701202392583 -12.509410858154297 -12.509410858154297 5.5978210449218757 5.4536701202392583 5.5978210449218757 5.0265350341796875 -12.509410858154297 5.4536701202392583 1.2559882164001466 1.2559882164001466
leaf_weight=12479 13550 16720 12372 1124 13960 1182 2675 789 1928 2287 15314 49 371 2752 1635
leaf_count=12479 13550 16720 12372 1124 13960 1182 2675 789 1928 2287 15314 49 371 2752 1635
internal_value=5.59405e-08 -8.62153 4.31912 5.35991 5.52655 -12.5094 -12.5094 5.59782 5.45367 5.59782 5.02654 -12.5094 5.45367 1.25599 1.25599
internal_weight=99187 33105 66082 49323 32885 16385 15203 16626 16259 15837 16438 2724 2299 16759 4387
internal_count=99187 33105 66082 49323 32885 16385 15203 16626 16259 15837 16438 2724 2299 16759 4387
is_linear=0
shrinkage=0.05


Tree=39
num_leaves=11
num_cat=0
split_feature=0 0 8 8 0 5 1 1 1 1
split_gain=1.33334e+09 1.77026e+08 7.60535e+07 989168 61663.2 2.38419e-07 2.98023e-08 2.98023e-08 2.98023e-08 3.72529e-09
threshold=1.5000000000000002 1.0000000180025095e-35 17.880989065295353 3.1414976819818601 4.5000000000000009 19.500000000000004 34.500000000000007 33.500000000000007 31.500000000000004 34.500000000000007
decision_type=2 2 2 2 2 2 2 2 2 2
left_child=1 5 3 4 -2 -1 -3 -5 -6 -10
right_child=2 6 -4 7 8 -7 -8 -9 9 -11
leaf_value=-11.883940124511719 5.3179298400878912 -4.5709762573242188 1.193188762664795 4.7752082824707029 5.1809864044189453 -11.883940124511719 -4.5709762573242188 4.7752082824707029 5.1809864044189453 5.1809864044189453
leaf_weight=10216 16626 16341 16759 15655 14749 6169 379 783 1139 371
leaf_count=10216 16626 16341 16759 15655 14749 6169 379 783 1139 371
internal_value=1.74309e-08 -8.19046 4.10316 5.09191 5.25022 -11.8839 -4.57098 4.77521 5.18099 5.18099
internal_weight=99187 33105 66082 49323 32885 16385 16720 16438 16259 1510
internal_count=99187 33105 66082 49323 32885 16385 16720 16438 16259 1510
is_linear=0
shrinkage=0.05


Tree=40
num_leaves=11
num_cat=0
split_feature=0 0 8 8 0 1 1 1 1 1
split_gain=1.20334e+09 1.59766e+08 6.86383e+07 892724 55650.9 1.19209e-07 2.98023e-08 2.98023e-08 1.49012e-08 7.45058e-09
threshold=1.5000000000000002 1.0000000180025095e-35 17.880989065295353 3.1414976819818601 4.5000000000000009 4.5000000000000009 34.500000000000007 24.500000000000004 3.5000000000000004 29.500000000000004
decision_type=2 2 2 2 2 2 2 2 2 2
left_child=1 5 3 4 6 8 -2 -3 -1 -9
right_child=2 7 -4 -5 -6 -7 -8 9 -10 -11
leaf_value=-11.289743041992189 5.0520332336425788 -4.342427444458008 1.1335293769836425 4.536447906494141 4.9219371795654299 -11.289743041992189 5.0520332336425788 -4.342427444458008 -11.289743041992189 -4.342427444458008
leaf_weight=1551 16220 11489 16759 16438 16259 14029 406 2849 805 2382
leaf_count=1551 16220 11489 16759 16438 16259 14029 406 2849 805 2382
internal_value=4.0797e-08 -7.78093 3.898 4.83732 4.98771 -11.2897 5.05203 -4.34243 -11.2897 -4.34243
internal_weight=99187 33105 66082 49323 32885 16385 16626 16720 2356 5231
internal_count=99187 33105 66082 49323 32885 16385 16626 16720 2356 5231
is_linear=0
shrinkage=0.05


Tree=41
num_leaves=17
num_cat=0
split_feature=0 0 8 8 0 3 3 4 5 5 5 5 6 5 5 5
split_gain=1.08602e+09 1.44188e+08 6.19461e+07 805683 50224.9 1.19209e-07 1.49012e-08 1.49012e-08 1.49012e-08 1.49012e-08 7.45058e-09 3.72529e-09 3.72529e-09 1.86265e-09 1.86265e-09 4.65661e-10
threshold=1.5000000000000002 1.0000000180025095e-35 17.880989065295353 3.1414976819818601 4.5000000000000009 1.0000000180025095e-35 3.5000000000000004 1.0000000180025095e-35 22.500000000000004 15.500000000000002 14.500000000000002 30.500000000000004 11.500000000000002 18.500000000000004 11.500000000000002 12.500000000000002
decision_type=2 2 2 2 2 2 2 2 2 2 2 2 2 2 2 2
left_child=1 5 3 4 -2 8 9 10 -1 -3 14 12 -10 -4 -5 -16
right_child=2 6 13 7 -6 -7 -8 -9 11 -11 -12 -13 -14 -15 15 -17
leaf_value=-10.72525634765625 4.7994316101074217 -4.1253059387207029 1.0768528938293458 4.3096256256103516 4.6758403778076172 -10.72525634765625 -4.1253059387207029 4.3096256256103516 -10.72525634765625 -4.1253059387207029 4.3096256256103516 -10.72525634765625 -10.72525634765625 1.0768528938293458 4.3096256256103516 4.3096256256103516
leaf_weight=1981 16626 6353 9891 1633 16259 13683 3639 11872 621 6728 2481 46 54 6868 135 317
leaf_count=1981 16626 6353 9891 1633 16259 13683 3639 11872 621 6728 2481 46 54 6868 135 317
internal_value=1.79674e-08 -7.39189 3.7031 4.59545 4.73833 -10.7253 -4.12531 4.30963 -10.7253 -4.12531 4.30963 -10.7253 -10.7253 1.07685 4.30963 4.30963
internal_weight=99187 33105 66082 49323 32885 16385 16720 16438 2702 13081 4566 721 675 16759 2085 452
internal_count=99187 33105 66082 49323 32885 16385 16720 16438 2702 13081 4566 721 675 16759 2085 452
is_linear=0
shrinkage=0.05


Tree=42
num_leaves=18
num_cat=0
split_feature=0 0 8 8 0 1 1 1 1 1 1 5 1 1 5 5 5
split_gain=9.80129e+08 1.3013e+08 5.59063e+07 727130 45328.1 1.19209e-07 2.98023e-08 2.98023e-08 1.49012e-08 1.49012e-08 1.49012e-08 7.45058e-09 3.72529e-09 1.86265e-09 1.86265e-09 9.31323e-10 9.31323e-10
threshold=1.5000000000000002 1.0000000180025095e-35 17.880989065295353 3.1414976819818601 4.5000000000000009 6.5000000000000009 34.500000000000007 25.500000000000004 4.5000000000000009 26.500000000000004 32.500000000000007 29.500000000000004 30.500000000000004 34.500000000000007 4.5000000000000009 26.500000000000004 12.500000000000002
decision_type=2 2 2 2 2 2 2 2 2 2 2 2 2 2 2 2 2
left_child=1 5 3 4 6 8 7 -2 -1 -3 -6 -10 14 -12 -11 -4 -8
right_child=2 9 15 -5 10 -7 16 -9 11 12 13 -13 -14 -15 -16 -17 -18
leaf_value=-10.188993072509767 4.5594600677490238 -3.9190406799316406 1.02301025390625 4.0941440582275392 4.4420482635498049 -10.188993072509767 4.5594600677490238 4.5594600677490238 -10.188993072509767 -3.9190406799316406 4.4420482635498049 -10.188993072509767 -3.9190406799316406 4.4420482635498049 -3.9190406799316406 1.02301025390625 4.5594600677490238
leaf_weight=2356 12292 12704 14282 16438 15131 13263 173 3928 738 260 757 28 1987 371 1769 2477 233
leaf_count=2356 12292 12704 14282 16438 15131 13263 173 3928 738 260 757 28 1987 371 1769 2477 233
internal_value=3.041e-08 -7.02229 3.51795 4.36568 4.50141 -10.189 4.55946 4.55946 -10.189 -3.91904 4.44205 -10.189 -3.91904 4.44205 -3.91904 1.02301 4.55946
internal_weight=99187 33105 66082 49323 32885 16385 16626 16220 3122 16720 16259 766 4016 1128 2029 16759 406
internal_count=99187 33105 66082 49323 32885 16385 16626 16220 3122 16720 16259 766 4016 1128 2029 16759 406
is_linear=0
shrinkage=0.05


Tree=43
num_leaves=14
num_cat=0
split_feature=8 8 8 8 8 1 1 1 1 5 1 2 5
split_gain=8.84566e+08 1.17442e+08 5.04555e+07 656234 40908.7 1.19209e-07 1.49012e-08 1.49012e-08 1.49012e-08 1.49012e-08 9.31323e-10 4.65661e-10 2.32831e-10
threshold=52.425875455843425 100.76088410813625 17.880989065295353 3.1414976819818601 1.1355182978549423 30.500000000000004 34.500000000000007 28.500000000000004 34.500000000000007 8.5000000000000018 5.5000000000000009 1.0000000180025095e-35 24.500000000000004
decision_type=2 2 2 2 2 2 2 2 2 2 2 2 2
left_child=2 6 3 4 9 -3 -2 -5 -6 -1 -4 12 -8
right_child=1 5 10 7 8 -7 11 -9 -10 -11 -12 -13 -14
leaf_value=4.3314872741699224 -3.723088836669922 -9.6795440673828139 0.97185974121093754 3.8894371032714847 4.2199459075927734 -9.6795440673828139 -3.723088836669922 3.8894371032714847 4.2199459075927734 4.3314872741699224 0.97185974121093754 -3.723088836669922 -3.723088836669922
leaf_weight=4379 16341 14412 2830 13758 15888 1973 167 2680 371 12247 13929 178 34
leaf_count=4379 16341 14412 2830 13758 15888 1973 167 2680 371 12247 13929 178 34
internal_value=-2.47488e-08 -6.67118 3.34205 4.1474 4.27634 -9.67954 -3.72309 3.88944 4.21995 4.33149 0.97186 -3.72309 -3.72309
internal_weight=99187 33105 66082 49323 32885 16385 16720 16438 16259 16626 16759 379 201
internal_count=99187 33105 66082 49323 32885 16385 16720 16438 16259 16626 16759 379 201
is_linear=0
shrinkage=0.05


Tree=44
num_leaves=10
num_cat=0
split_feature=0 0 8 8 0 1 1 1 5
split_gain=7.98321e+08 1.05992e+08 4.55361e+07 592252 36920.1 1.49012e-08 1.49012e-08 9.31323e-10 9.31323e-10
threshold=1.5000000000000002 1.0000000180025095e-35 17.880989065295353 3.1414976819818601 4.5000000000000009 34.500000000000007 31.500000000000004 32.500000000000007 28.500000000000004
decision_type=2 2 2 2 2 2 2 2 2
left_child=1 -1 3 4 5 -2 -3 -4 -7
right_child=2 6 7 -5 -6 8 -8 -9 -10
leaf_value=-9.195566558837891 4.1149127960205076 -3.5369342803955082 0.9232667922973633 3.6949649810791017 4.0089485168457033 4.1149127960205076 -3.5369342803955082 0.9232667922973633 4.1149127960205076
leaf_weight=16385 16220 15127 15560 16438 16259 378 1593 1199 28
leaf_count=16385 16220 15127 15560 16438 16259 378 1593 1199 28
internal_value=-2.64314e-08 -6.33762 3.17495 3.94003 4.06252 4.11491 -3.53693 0.923267 4.11491
internal_weight=99187 33105 66082 49323 32885 16626 16720 16759 406
internal_count=99187 33105 66082 49323 32885 16626 16720 16759 406
is_linear=0
shrinkage=0.05


Tree=45
num_leaves=9
num_cat=0
split_feature=0 0 8 8 0 5 1 1
split_gain=7.20485e+08 9.56575e+07 4.10963e+07 534507 33320.4 5.96046e-08 1.49012e-08 9.31323e-10
threshold=1.5000000000000002 1.0000000180025095e-35 17.880989065295353 3.1414976819818601 4.5000000000000009 10.500000000000002 21.500000000000004 33.500000000000007
decision_type=2 2 2 2 2 2 2 2
left_child=1 5 3 4 -2 -1 -3 -4
right_child=2 6 7 -5 -6 -7 -8 -9
leaf_value=-8.7357879638671871 3.9091670989990237 -3.3600875854492189 0.87710342407226571 3.5102169036865236 3.8085010528564456 -8.7357879638671871 -3.3600875854492189 0.87710342407226571
leaf_weight=5388 16626 10315 15964 16438 16259 10997 6405 795
leaf_count=5388 16626 10315 15964 16438 16259 10997 6405 795
internal_value=2.35565e-08 -6.02074 3.0162 3.74302 3.8594 -8.73579 -3.36009 0.877103
internal_weight=99187 33105 66082 49323 32885 16385 16720 16759
internal_count=99187 33105 66082 49323 32885 16385 16720 16759
is_linear=0
shrinkage=0.05


Tree=46
num_leaves=13
num_cat=0
split_feature=0 0 8 8 0 1 1 1 2 1 1 5
split_gain=6.50237e+08 8.6331e+07 3.70894e+07 482392 30071.8 5.96046e-08 1.49012e-08 1.49012e-08 1.49012e-08 9.31323e-10 9.31323e-10 2.32831e-10
threshold=1.5000000000000002 1.0000000180025095e-35 17.880989065295353 3.1414976819818601 4.5000000000000009 27.500000000000004 33.500000000000007 34.500000000000007 1.0000000180025095e-35 34.500000000000007 34.500000000000007 16.500000000000004
decision_type=2 2 2 2 2 2 2 2 2 2 2 2
left_child=1 5 3 4 6 -1 -2 -5 -6 -4 -8 -9
right_child=2 -3 9 7 8 -7 10 11 -10 -11 -12 -13
leaf_value=-8.2989990234375011 3.7137088775634766 -3.1920831680297854 0.8332482337951661 3.3347061157226565 3.6180759429931642 -8.2989990234375011 3.7137088775634766 3.3347061157226565 3.6180759429931642 0.8332482337951661 3.7137088775634766 3.3347061157226565
leaf_weight=12872 15837 16720 16343 16040 8104 3513 383 207 8155 416 406 191
leaf_count=12872 15837 16720 16343 16040 8104 3513 383 207 8155 416 406 191
internal_value=-2.75496e-08 -5.7197 2.86539 3.55587 3.66643 -8.299 3.71371 3.33471 3.61808 0.833248 3.71371 3.33471
internal_weight=99187 33105 66082 49323 32885 16385 16626 16438 16259 16759 789 398
internal_count=99187 33105 66082 49323 32885 16385 16626 16438 16259 16759 789 398
is_linear=0
shrinkage=0.05


Tree=47
num_leaves=16
num_cat=0
split_feature=0 0 8 8 0 1 1 1 1 1 1 1 5 5 5
split_gain=5.86839e+08 7.79137e+07 3.34732e+07 435360 27139.7 5.96046e-08 1.49012e-08 1.49012e-08 7.45058e-09 7.45058e-09 3.72529e-09 9.31323e-10 2.32831e-10 2.32831e-10 2.91038e-11
threshold=1.5000000000000002 1.0000000180025095e-35 17.880989065295353 3.1414976819818601 4.5000000000000009 33.500000000000007 34.500000000000007 33.500000000000007 32.500000000000007 19.500000000000004 34.500000000000007 34.500000000000007 27.500000000000004 25.500000000000004 29.500000000000004
decision_type=2 2 2 2 2 2 2 2 2 2 2 2 2 2 2
left_child=1 5 3 4 6 -1 7 -2 -3 -5 -7 -10 -8 -13 -15
right_child=2 8 -4 9 -6 10 12 -9 11 -11 -12 13 -14 14 -16
leaf_value=-7.8840492248535163 3.5280235290527346 -3.0324789047241212 0.79158582687377932 3.1679706573486328 3.4371723175048832 -7.8840492248535163 3.5280235290527346 3.5280235290527346 -3.0324789047241212 3.1679706573486328 -7.8840492248535163 -3.0324789047241212 3.5280235290527346 -3.0324789047241212 -3.0324789047241212
leaf_weight=15583 15837 15524 16759 9444 16259 414 364 383 817 6994 388 312 42 40 27
leaf_count=15583 15837 15524 16759 9444 16259 414 364 383 817 6994 388 312 42 40 27
internal_value=-1.40522e-08 -5.43372 2.72212 3.37808 3.4831 -7.88405 3.52802 3.52802 -3.03248 3.16797 -7.88405 -3.03248 3.52802 -3.03248 -3.03248
internal_weight=99187 33105 66082 49323 32885 16385 16626 16220 16720 16438 802 1196 406 379 67
internal_count=99187 33105 66082 49323 32885 16385 16626 16220 16720 16438 802 1196 406 379 67
is_linear=0
shrinkage=0.05


Tree=48
num_leaves=14
num_cat=0
split_feature=0 0 8 8 0 1 1 1 1 1 1 1 6
split_gain=5.29622e+08 7.03171e+07 3.02096e+07 392912 24493.4 5.96046e-08 1.49012e-08 1.49012e-08 7.45058e-09 7.45058e-09 3.72529e-09 4.65661e-10 2.32831e-10
threshold=1.5000000000000002 1.0000000180025095e-35 17.880989065295353 3.1414976819818601 4.5000000000000009 34.500000000000007 23.500000000000004 29.500000000000004 34.500000000000007 33.500000000000007 28.500000000000004 8.5000000000000018 10.500000000000002
decision_type=2 2 2 2 2 2 2 2 2 2 2 2 2
left_child=1 5 3 4 6 -1 -2 -6 -3 -5 -8 -4 -10
right_child=2 8 11 9 7 -7 10 -9 12 -11 -12 -13 -14
leaf_value=-7.4898460388183601 3.3516220092773441 -2.8808549880981449 0.75200653076171875 3.009572219848633 3.2653137207031251 -7.4898460388183601 3.3516220092773441 3.2653137207031251 -2.8808549880981449 3.009572219848633 3.3516220092773441 0.75200653076171875 -2.8808549880981449
leaf_weight=15997 11121 16341 4017 15655 13960 388 2731 2299 311 783 2774 12742 68
leaf_count=15997 11121 16341 4017 15655 13960 388 2731 2299 311 783 2774 12742 68
internal_value=6.21354e-08 -5.16203 2.58601 3.20918 3.30895 -7.48985 3.35162 3.26531 -2.88085 3.00957 3.35162 0.752007 -2.88085
internal_weight=99187 33105 66082 49323 32885 16385 16626 16259 16720 16438 5505 16759 379
internal_count=99187 33105 66082 49323 32885 16385 16626 16259 16720 16438 5505 16759 379
is_linear=0
shrinkage=0.05


Tree=49
num_leaves=14
num_cat=0
split_feature=0 0 8 8 0 1 1 5 5 5 6 1 1
split_gain=4.77984e+08 6.34612e+07 2.72641e+07 354603 22105.4 5.96046e-08 7.45058e-09 7.45058e-09 1.86265e-09 9.31323e-10 9.31323e-10 4.65661e-10 5.82077e-11
threshold=1.5000000000000002 1.0000000180025095e-35 17.880989065295353 3.1414976819818601 4.5000000000000009 34.500000000000007 26.500000000000004 19.500000000000004 4.5000000000000009 28.500000000000004 4.5000000000000009 30.500000000000004 31.500000000000004
decision_type=2 2 2 2 2 2 2 2 2 2 2 2 2
left_child=1 5 3 4 -2 -1 -6 -5 -8 10 -7 -4 -13
right_child=2 -3 11 7 6 9 8 -9 -10 -11 -12 12 -14
leaf_value=-7.1153541564941412 3.1840410232543945 -2.7368122100830079 0.71440620422363288 2.8590936660766602 3.1020479202270508 -7.1153541564941412 3.1020479202270508 2.8590936660766602 3.1020479202270508 -7.1153541564941412 -7.1153541564941412 0.71440620422363288 0.71440620422363288
leaf_weight=15997 16626 16720 14714 10282 12364 118 501 6156 3394 34 236 410 1635
leaf_count=15997 16626 16720 14714 10282 12364 118 501 6156 3394 34 236 410 1635
internal_value=4.44017e-09 -4.90393 2.45671 3.04872 3.1435 -7.11535 3.10205 2.85909 3.10205 -7.11535 -7.11535 0.714406 0.714406
internal_weight=99187 33105 66082 49323 32885 16385 16259 16438 3895 388 354 16759 2045
internal_count=99187 33105 66082 49323 32885 16385 16259 16438 3895 388 354 16759 2045
is_linear=0
shrinkage=0.05


Tree=50
num_leaves=15
num_cat=0
split_feature=8 8 8 8 8 1 1 1 7 1 1 5 1 5
split_gain=4.31381e+08 5.72737e+07 2.46059e+07 320029 19950.1 5.96046e-08 7.45058e-09 7.45058e-09 3.72529e-09 9.31323e-10 4.65661e-10 2.32831e-10 5.82077e-11 1.45519e-11
threshold=52.425875455843425 100.76088410813625 17.880989065295353 3.1414976819818601 1.1355182978549423 33.500000000000007 7.5000000000000009 32.500000000000007 5.5000000000000009 31.500000000000004 34.500000000000007 28.500000000000004 34.500000000000007 2.5000000000000004
decision_type=2 2 2 2 2 2 2 2 2 2 2 2 2 2
left_child=2 -2 3 4 6 -3 8 -6 -1 -4 -9 -12 -11 -14
right_child=1 5 9 -5 7 -7 -8 10 -10 12 11 -13 13 -15
leaf_value=3.0248390197753907 -2.5999717712402344 -6.7595863342285156 0.67868590354919434 2.7161388397216797 2.9469455718994144 -6.7595863342285156 3.0248390197753907 2.9469455718994144 3.0248390197753907 0.67868590354919434 2.9469455718994144 2.9469455718994144 0.67868590354919434 0.67868590354919434
leaf_weight=3168 16720 15583 15124 16438 15131 802 12974 757 484 1219 333 38 26 390
leaf_count=3168 16720 15583 15124 16438 15131 802 12974 757 484 1219 333 38 26 390
internal_value=-1.21008e-08 -4.65873 2.33388 2.89628 2.98633 -6.75959 3.02484 2.94695 3.02484 0.678686 2.94695 2.94695 0.678686 0.678686
internal_weight=99187 33105 66082 49323 32885 16385 16626 16259 3652 16759 1128 371 1635 416
internal_count=99187 33105 66082 49323 32885 16385 16626 16259 3652 16759 1128 371 1635 416
is_linear=0
shrinkage=0.05


Tree=51
num_leaves=14
num_cat=0
split_feature=0 0 8 8 0 1 1 5 1 1 1 5 5
split_gain=3.89321e+08 5.16895e+07 2.22068e+07 288826 18005 7.45058e-09 7.45058e-09 7.45058e-09 3.72529e-09 4.65661e-10 4.65661e-10 4.65661e-10 1.16415e-10
threshold=1.5000000000000002 1.0000000180025095e-35 17.880989065295353 3.1414976819818601 4.5000000000000009 23.500000000000004 31.500000000000004 28.500000000000004 34.500000000000007 34.500000000000007 32.500000000000007 30.500000000000004 16.500000000000004
decision_type=2 2 2 2 2 2 2 2 2 2 2 2 2
left_child=1 -1 3 4 5 -2 -3 -6 -7 -4 12 -9 -8
right_child=2 6 9 -5 7 8 10 11 -10 -11 -12 -13 -14
leaf_value=-6.4216072082519533 2.8735971450805664 -2.4699731826782227 0.64475159645080571 2.5803319931030275 2.7995983123779298 2.8735971450805664 -2.4699731826782227 2.7995983123779298 2.8735971450805664 0.64475159645080571 -2.4699731826782227 2.7995983123779298 -2.4699731826782227
leaf_weight=16385 11121 15127 16343 16438 14936 5099 197 1006 406 416 1196 317 200
leaf_count=16385 11121 15127 16343 16438 14936 5099 197 1006 406 416 1196 317 200
internal_value=-1.32979e-08 -4.4258 2.21718 2.75147 2.83701 2.8736 -2.46997 2.7996 2.8736 0.644752 -2.46997 2.7996 -2.46997
internal_weight=99187 33105 66082 49323 32885 16626 16720 16259 5505 16759 1593 1323 397
internal_count=99187 33105 66082 49323 32885 16626 16720 16259 5505 16759 1593 1323 397
is_linear=0
shrinkage=0.05


Tree=52
num_leaves=11
num_cat=0
split_feature=0 0 8 8 0 1 1 1 1 5
split_gain=3.51362e+08 4.66498e+07 2.00416e+07 260666 16249.5 2.98023e-08 7.45058e-09 7.45058e-09 7.45058e-09 9.31323e-10
threshold=1.5000000000000002 1.0000000180025095e-35 17.880989065295353 3.1414976819818601 4.5000000000000009 31.500000000000004 24.500000000000004 18.500000000000004 29.500000000000004 6.5000000000000009
decision_type=2 2 2 2 2 2 2 2 2 2
left_child=1 5 3 4 6 -1 -2 -5 -6 -10
right_child=2 -3 -4 7 8 -7 -8 -9 9 -11
leaf_value=-6.1005268096923828 2.7299171447753907 -2.3464744567871096 0.61251401901245117 2.4513153076171879 2.6596183776855469 -6.1005268096923828 2.7299171447753907 2.4513153076171879 2.6596183776855469 2.6596183776855469
leaf_weight=14806 11535 16720 16759 8676 13960 1579 5091 7762 434 1865
leaf_count=14806 11535 16720 16759 8676 13960 1579 5091 7762 434 1865
internal_value=-3.6005e-08 -4.20451 2.10633 2.61389 2.69516 -6.10053 2.72992 2.45132 2.65962 2.65962
internal_weight=99187 33105 66082 49323 32885 16385 16626 16438 16259 2299
internal_count=99187 33105 66082 49323 32885 16385 16626 16438 16259 2299
is_linear=0
shrinkage=0.05


Tree=53
num_leaves=11
num_cat=0
split_feature=0 0 0 0 0 1 1 5 1 5
split_gain=3.17104e+08 4.21014e+07 4.70122e+06 1.35082e+07 128036 2.98023e-08 7.45058e-09 7.45058e-09 4.65661e-10 1.16415e-10
threshold=1.5000000000000002 1.0000000180025095e-35 3.5000000000000004 2.5000000000000004 4.5000000000000009 27.500000000000004 34.500000000000007 1.5000000000000002 1.0000000180025095e-35 27.500000000000004
decision_type=2 2 2 2 2 2 2 2 2 2
left_child=1 5 3 -2 6 -1 -4 -7 -5 -8
right_child=2 -3 4 8 -6 7 9 -9 -10 -11
leaf_value=-5.7955001831054691 2.5934213638305668 -2.2291507720947266 2.3287496566772461 0.58188834190368655 2.5266374588012699 -5.7955001831054691 2.3287496566772461 -5.7955001831054691 0.58188834190368655 2.3287496566772461
leaf_weight=12872 16626 16720 16040 388 16259 125 360 3388 16371 38
leaf_count=12872 16626 16720 16040 388 16259 125 360 3388 16371 38
internal_value=4.24099e-08 -3.99428 2.00101 1.58365 2.42715 -5.7955 2.32875 -5.7955 0.581888 2.32875
internal_weight=99187 33105 66082 33385 32697 16385 16438 3513 16759 398
internal_count=99187 33105 66082 33385 32697 16385 16438 3513 16759 398
is_linear=0
shrinkage=0.05


Tree=54
num_leaves=15
num_cat=0
split_feature=0 0 8 8 0 5 1 1 1 1 5 1 2 5
split_gain=2.86187e+08 3.79966e+07 1.6324e+07 212314 13235.3 2.98023e-08 7.45058e-09 7.45058e-09 7.45058e-09 3.72529e-09 9.31323e-10 4.65661e-10 2.32831e-10 2.32831e-10
threshold=1.5000000000000002 1.0000000180025095e-35 17.880989065295353 3.1414976819818601 4.5000000000000009 18.500000000000004 33.500000000000007 32.500000000000007 33.500000000000007 27.500000000000004 3.5000000000000004 1.0000000180025095e-35 1.0000000180025095e-35 29.500000000000004
decision_type=2 2 2 2 2 2 2 2 2 2 2 2 2 2
left_child=1 5 3 4 6 -1 -2 -3 -6 -5 -11 -4 -8 -10
right_child=2 7 11 9 8 -7 12 -9 13 10 -12 -13 -14 -15
leaf_value=-5.5057254791259771 2.4637502670288089 -2.1176931381225588 0.55279393196105964 2.2123121261596679 2.4003055572509768 -5.5057254791259771 2.4637502670288089 -2.1176931381225588 2.4003055572509768 2.2123121261596679 2.2123121261596679 0.55279393196105964 2.4637502670288089 2.4003055572509768
leaf_weight=9642 15837 15524 388 12999 15517 6743 396 1196 702 364 3075 16371 393 40
leaf_count=9642 15837 15524 388 12999 15517 6743 396 1196 702 364 3075 16371 393 40
internal_value=-1.02269e-08 -3.79457 1.90096 2.35904 2.43238 -5.50573 2.46375 -2.11769 2.40031 2.21231 2.21231 0.552794 2.46375 2.40031
internal_weight=99187 33105 66082 49323 32885 16385 16626 16720 16259 16438 3439 16759 789 742
internal_count=99187 33105 66082 49323 32885 16385 16626 16720 16259 16438 3439 16759 789 742
is_linear=0
shrinkage=0.05


Tree=55
num_leaves=18
num_cat=0
split_feature=0 0 8 8 0 1 1 1 1 1 5 1 1 1 1 5 5
split_gain=2.58284e+08 3.42919e+07 1.47324e+07 191613 11944.9 2.98023e-08 7.45058e-09 7.45058e-09 3.72529e-09 3.72529e-09 3.72529e-09 4.65661e-10 2.32831e-10 2.32831e-10 1.16415e-10 1.16415e-10 7.27596e-12
threshold=1.5000000000000002 1.0000000180025095e-35 17.880989065295353 3.1414976819818601 4.5000000000000009 34.500000000000007 34.500000000000007 32.500000000000007 34.500000000000007 31.500000000000004 25.500000000000004 33.500000000000007 34.500000000000007 21.500000000000004 28.500000000000004 28.500000000000004 26.500000000000004
decision_type=2 2 2 2 2 2 2 2 2 2 2 2 2 2 2 2 2
left_child=1 5 3 4 6 -1 -2 9 10 -6 -3 -9 13 -4 -15 -10 -14
right_child=2 8 12 -5 7 -7 -8 11 15 -11 -12 -13 16 14 -16 -17 -18
leaf_value=-5.2304389953613288 2.3405628204345703 -2.0118085861206056 0.52515420913696287 2.1016965866088868 2.2802902221679688 -5.2304389953613288 2.3405628204345703 2.2802902221679688 -2.0118085861206056 2.2802902221679688 -2.0118085861206056 2.2802902221679688 0.52515420913696287 0.52515420913696287 0.52515420913696287 -2.0118085861206056 0.52515420913696287
leaf_weight=15997 16220 13402 10357 16438 14749 388 406 386 342 382 2939 742 365 3576 2410 37 51
leaf_count=15997 16220 13402 10357 16438 14749 388 406 386 342 382 2939 742 365 3576 2410 37 51
internal_value=1.57021e-08 -3.60484 1.80591 2.24109 2.31076 -5.23044 2.34056 2.28029 -2.01181 2.28029 -2.01181 2.28029 0.525154 0.525154 0.525154 -2.01181 0.525154
internal_weight=99187 33105 66082 49323 32885 16385 16626 16259 16720 15131 16341 1128 16759 16343 5986 379 416
internal_count=99187 33105 66082 49323 32885 16385 16626 16259 16720 15131 16341 1128 16759 16343 5986 379 416
is_linear=0
shrinkage=0.05


Tree=56
num_leaves=10
num_cat=0
split_feature=0 0 8 8 0 1 3 5 1
split_gain=2.33101e+08 3.09484e+07 1.3296e+07 172931 10780.2 7.45058e-09 7.45058e-09 7.45058e-09 2.32831e-10
threshold=1.5000000000000002 1.0000000180025095e-35 17.880989065295353 3.1414976819818601 4.5000000000000009 32.500000000000007 1.5000000000000002 4.5000000000000009 9.5000000000000018
decision_type=2 2 2 2 2 2 2 2 2
left_child=1 -1 3 4 6 -6 -2 -5 -4
right_child=2 -3 8 7 5 -7 -8 -9 -10
leaf_value=-4.9689170837402346 2.2235345840454102 -1.9112180709838869 0.49889650344848635 1.9966115951538086 2.1662757873535159 2.1662757873535159 2.2235345840454102 1.9966115951538086 0.49889650344848635
leaf_weight=16385 4759 16720 4442 2234 15131 1128 11867 14204 12317
leaf_count=16385 4759 16720 4442 2234 15131 1128 11867 14204 12317
internal_value=-6.45834e-09 -3.4246 1.71562 2.12903 2.19522 2.16628 2.22353 1.99661 0.498897
internal_weight=99187 33105 66082 49323 32885 16259 16626 16438 16759
internal_count=99187 33105 66082 49323 32885 16259 16626 16438 16759
is_linear=0
shrinkage=0.05


Tree=57
num_leaves=14
num_cat=0
split_feature=8 8 8 8 8 1 1 1 1 1 5 5 5
split_gain=2.10374e+08 2.7931e+07 1.19997e+07 156070 9729.17 2.98023e-08 3.72529e-09 3.72529e-09 3.72529e-09 3.72529e-09 3.72529e-09 9.31323e-10 5.82077e-11
threshold=52.425875455843425 100.76088410813625 17.880989065295353 3.1414976819818601 1.1355182978549423 31.500000000000004 27.500000000000004 34.500000000000007 31.500000000000004 27.500000000000004 29.500000000000004 1.5000000000000002 22.500000000000004
decision_type=2 2 2 2 2 2 2 2 2 2 2 2 2
left_child=2 7 3 4 6 -3 -1 10 -5 -6 -2 -11 -9
right_child=1 5 -4 8 9 -7 -8 12 -10 11 -12 -13 -14
leaf_value=2.1123579025268557 -1.8156572341918946 -4.7204711914062498 0.47395167350769046 1.8967811584472658 2.0579620361328126 -4.7204711914062498 2.1123579025268557 -1.8156572341918946 1.8967811584472658 2.0579620361328126 -1.8156572341918946 2.0579620361328126 -1.8156572341918946
leaf_weight=13062 15512 14806 16759 14922 12766 1579 3564 278 1516 120 829 3373 101
leaf_count=13062 15512 14806 16759 14922 12766 1579 3564 278 1516 120 829 3373 101
internal_value=2.60607e-08 -3.25337 1.62983 2.02258 2.08546 -4.72047 2.11236 -1.81566 1.89678 2.05796 -1.81566 2.05796 -1.81566
internal_weight=99187 33105 66082 49323 32885 16385 16626 16720 16438 16259 16341 3493 379
internal_count=99187 33105 66082 49323 32885 16385 16626 16720 16438 16259 16341 3493 379
is_linear=0
shrinkage=0.05


Tree=58
num_leaves=12
num_cat=0
split_feature=0 0 8 8 0 1 1 5 1 1 5
split_gain=1.89862e+08 2.52077e+07 1.08297e+07 140853 8780.61 3.72529e-09 3.72529e-09 9.31323e-10 2.32831e-10 2.32831e-10 2.32831e-10
threshold=1.5000000000000002 1.0000000180025095e-35 17.880989065295353 3.1414976819818601 4.5000000000000009 33.500000000000007 22.500000000000004 29.500000000000004 34.500000000000007 28.500000000000004 29.500000000000004
decision_type=2 2 2 2 2 2 2 2 2 2 2
left_child=1 -1 3 4 5 6 -2 -8 9 -4 -7
right_child=2 -3 8 -5 -6 10 7 -9 -10 -11 -12
leaf_value=-4.4844478607177738 2.0067399978637694 -1.7248743057250977 0.45025410652160647 1.8019420623779299 1.9550638198852539 2.0067399978637694 2.0067399978637694 2.0067399978637694 0.45025410652160647 0.45025410652160647 2.0067399978637694
leaf_weight=16385 10722 16720 13933 16438 16259 746 4868 247 416 2410 43
leaf_count=16385 10722 16720 13933 16438 16259 746 4868 247 416 2410 43
internal_value=-2.56588e-08 -3.0907 1.54834 1.92145 1.98119 2.00674 2.00674 2.00674 0.450254 0.450254 2.00674
internal_weight=99187 33105 66082 49323 32885 16626 15837 5115 16759 16343 789
internal_count=99187 33105 66082 49323 32885 16626 15837 5115 16759 16343 789
is_linear=0
shrinkage=0.05


Tree=59
num_leaves=18
num_cat=0
split_feature=0 0 8 8 0 1 1 1 1 1 1 1 5 1 5 5 5
split_gain=1.71351e+08 2.27499e+07 9.7738e+06 127120 7924.47 1.49012e-08 3.72529e-09 3.72529e-09 3.72529e-09 3.72529e-09 3.72529e-09 1.86265e-09 9.31323e-10 4.65661e-10 5.82077e-11 5.82077e-11 7.27596e-12
threshold=1.5000000000000002 1.0000000180025095e-35 17.880989065295353 3.1414976819818601 4.5000000000000009 32.500000000000007 29.500000000000004 34.500000000000007 4.5000000000000009 34.500000000000007 33.500000000000007 34.500000000000007 7.5000000000000009 34.500000000000007 28.500000000000004 26.500000000000004 11.500000000000002
decision_type=2 2 2 2 2 2 2 2 2 2 2 2 2 2 2 2 2
left_child=1 5 3 4 6 -1 -2 -3 -5 10 -6 12 -7 -4 -11 -12 -15
right_child=2 7 13 8 9 11 -8 -9 -10 14 15 -13 -14 16 -16 -17 -18
leaf_value=-4.2602252960205078 1.9064029693603517 -1.6386306762695313 0.42774138450622562 1.7118450164794923 1.8573106765747072 -4.2602252960205078 1.9064029693603517 -1.6386306762695313 1.7118450164794923 1.8573106765747072 1.8573106765747072 -4.2602252960205078 -4.2602252960205078 0.42774138450622562 1.8573106765747072 1.8573106765747072 0.42774138450622562
leaf_weight=15203 14230 16341 16343 2349 15517 189 2396 379 14089 333 325 388 605 139 38 46 277
leaf_count=15203 14230 16341 16343 2349 15517 189 2396 379 14089 333 325 388 605 139 38 46 277
internal_value=-8.03326e-10 -2.93616 1.47093 1.82538 1.88213 -4.26023 1.9064 -1.63863 1.71185 1.85731 1.85731 -4.26023 -4.26023 0.427741 1.85731 1.85731 0.427741
internal_weight=99187 33105 66082 49323 32885 16385 16626 16720 16438 16259 15888 1182 794 16759 371 371 416
internal_count=99187 33105 66082 49323 32885 16385 16626 16720 16438 16259 15888 1182 794 16759 371 371 416
is_linear=0
shrinkage=0.05


Tree=60
num_leaves=11
num_cat=0
split_feature=0 0 8 8 0 1 1 4 5 5
split_gain=1.54644e+08 2.05318e+07 8.82086e+06 114726 7151.85 3.72529e-09 3.72529e-09 3.72529e-09 2.32831e-10 1.16415e-10
threshold=1.5000000000000002 1.0000000180025095e-35 17.880989065295353 3.1414976819818601 4.5000000000000009 33.500000000000007 34.500000000000007 1.0000000180025095e-35 20.500000000000004 4.5000000000000009
decision_type=2 2 2 2 2 2 2 2 2 2
left_child=1 -1 3 4 5 -2 -5 -3 -4 -7
right_child=2 7 8 6 -6 9 -8 -9 -10 -11
leaf_value=-4.0472141265869146 1.8110828399658203 -1.5566990852355957 0.40635433197021487 1.6262527465820313 1.7644451141357422 1.8110828399658203 1.6262527465820313 -1.5566990852355957 0.40635433197021487 1.8110828399658203
leaf_weight=16385 15837 4922 10962 16040 16259 107 398 11798 5797 682
leaf_count=16385 15837 4922 10962 16040 16259 107 398 11798 5797 682
internal_value=-8.70534e-09 -2.78936 1.39738 1.73411 1.78802 1.81108 1.62625 -1.5567 0.406354 1.81108
internal_weight=99187 33105 66082 49323 32885 16626 16438 16720 16759 789
internal_count=99187 33105 66082 49323 32885 16626 16438 16720 16759 789
is_linear=0
shrinkage=0.05


Tree=61
num_leaves=18
num_cat=0
split_feature=0 0 8 8 0 1 1 1 1 1 5 5 1 5 1 5 7
split_gain=1.39566e+08 1.853e+07 7.96083e+06 103540 6454.53 1.49012e-08 1.49012e-08 3.72529e-09 3.72529e-09 3.72529e-09 9.31323e-10 9.31323e-10 1.16415e-10 5.82077e-11 2.91038e-11 2.91038e-11 7.27596e-12
threshold=1.5000000000000002 1.0000000180025095e-35 17.880989065295353 3.1414976819818601 4.5000000000000009 32.500000000000007 28.500000000000004 33.500000000000007 34.500000000000007 24.500000000000004 5.5000000000000009 21.500000000000004 27.500000000000004 29.500000000000004 28.500000000000004 27.500000000000004 1.5000000000000002
decision_type=2 2 2 2 2 2 2 2 2 2 2 2 2 2 2 2 2
left_child=1 5 3 4 7 6 -1 -2 9 -6 -7 -11 -4 -10 16 -16 -14
right_child=2 -3 12 -5 8 10 -8 -9 13 11 -12 -13 14 -15 15 -17 -18
leaf_value=-3.844853210449219 1.7205287933349611 -1.478864097595215 0.38603661060333255 1.5449400901794434 1.6762229919433596 -3.844853210449219 -3.844853210449219 1.7205287933349611 1.6762229919433596 1.6762229919433596 -3.844853210449219 1.6762229919433596 0.38603661060333255 1.6762229919433596 0.38603661060333255 0.38603661060333255 0.38603661060333255
leaf_weight=13650 15837 16720 13141 16438 11263 202 1553 789 346 3180 980 1445 233 25 2506 320 559
leaf_count=13650 15837 16720 13141 16438 11263 202 1553 789 346 3180 980 1445 233 25 2506 320 559
internal_value=6.59206e-08 -2.64989 1.32751 1.6474 1.69862 -3.84485 -3.84485 1.72053 1.67622 1.67622 -3.84485 1.67622 0.386037 1.67622 0.386037 0.386037 0.386037
internal_weight=99187 33105 66082 49323 32885 16385 15203 16626 16259 15888 1182 4625 16759 371 3618 2826 792
internal_count=99187 33105 66082 49323 32885 16385 15203 16626 16259 15888 1182 4625 16759 371 3618 2826 792
is_linear=0
shrinkage=0.05


Tree=62
num_leaves=20
num_cat=0
split_feature=0 0 0 0 0 1 1 1 1 1 5 5 5 5 1 5 5 6 5
split_gain=1.25958e+08 1.67233e+07 1.86739e+06 5.36567e+06 50857.9 1.49012e-08 3.72529e-09 1.86265e-09 1.86265e-09 1.86265e-09 1.86265e-09 9.31323e-10 2.32831e-10 2.32831e-10 1.16415e-10 1.16415e-10 2.91038e-11 2.91038e-11 3.63798e-12
threshold=1.5000000000000002 1.0000000180025095e-35 3.5000000000000004 2.5000000000000004 4.5000000000000009 31.500000000000004 17.500000000000004 30.500000000000004 27.500000000000004 34.500000000000007 1.5000000000000002 18.500000000000004 3.5000000000000004 26.500000000000004 27.500000000000004 30.500000000000004 3.5000000000000004 2.5000000000000004 1.5000000000000002
decision_type=2 2 2 2 2 2 2 2 2 2 2 2 2 2 2 2 2 2 2
left_child=1 5 3 6 7 -1 -2 -4 -6 11 -8 -7 17 -11 15 -5 18 -9 -16
right_child=2 -3 4 14 8 9 10 12 -10 13 -12 -13 -14 -15 16 -17 -18 -19 -20
leaf_value=-3.6526107788085938 1.6345022201538086 -1.4049209594726564 1.4676930427551271 0.36673476696014407 1.5924118041992188 -3.6526107788085938 1.6345022201538086 1.4676930427551271 1.5924118041992188 -3.6526107788085938 1.6345022201538086 -3.6526107788085938 1.4676930427551271 -3.6526107788085938 0.36673476696014407 0.36673476696014407 0.36673476696014407 1.4676930427551271 0.36673476696014407
leaf_weight=14806 8329 16720 14556 12889 12766 707 276 29 3493 327 8021 484 1688 61 116 252 3271 165 231
leaf_count=14806 8329 16720 14556 12889 12766 707 276 29 3493 327 8021 484 1688 61 116 252 3271 165 231
internal_value=-2.43995e-08 -2.51739 1.26113 0.998093 1.52971 -3.65261 1.6345 1.46769 1.59241 -3.65261 1.6345 -3.65261 1.46769 -3.65261 0.366735 0.366735 0.366735 1.46769 0.366735
internal_weight=99187 33105 66082 33385 32697 16385 16626 16438 16259 1579 8297 1191 1882 388 16759 13141 3618 194 347
internal_count=99187 33105 66082 33385 32697 16385 16626 16438 16259 1579 8297 1191 1882 388 16759 13141 3618 194 347
is_linear=0
shrinkage=0.05


Tree=63
num_leaves=17
num_cat=0
split_feature=0 0 8 8 0 1 1 1 1 1 5 1 5 5 5 5
split_gain=1.13677e+08 1.50928e+07 6.48414e+06 84334.2 5257.27 3.72529e-09 1.86265e-09 1.86265e-09 1.86265e-09 1.86265e-09 9.31323e-10 1.16415e-10 5.82077e-11 5.82077e-11 5.82077e-11 1.45519e-11
threshold=1.5000000000000002 1.0000000180025095e-35 17.880989065295353 3.1414976819818601 4.5000000000000009 34.500000000000007 34.500000000000007 8.5000000000000018 9.5000000000000018 34.500000000000007 25.500000000000004 4.5000000000000009 29.500000000000004 27.500000000000004 20.500000000000004 22.500000000000004
decision_type=2 2 2 2 2 2 2 2 2 2 2 2 2 2 2 2
left_child=1 -1 3 4 6 -6 7 10 -3 -5 -2 15 -7 14 -8 -4
right_child=2 8 11 9 5 12 13 -9 -10 -11 -12 -13 -14 -15 -16 -17
leaf_value=-3.4699802398681641 1.5527771949768068 -1.3346748352050781 0.3483980417251587 1.3943083763122559 1.5127911567687988 1.5127911567687988 1.5527771949768068 1.5527771949768068 -1.3346748352050781 1.3943083763122559 1.5527771949768068 0.3483980417251587 1.5127911567687988 1.5527771949768068 1.5527771949768068 0.3483980417251587
leaf_weight=16385 3314 4333 1717 16040 15888 346 278 12199 12387 398 707 14344 25 42 86 698
leaf_count=16385 3314 4333 1717 16040 15888 346 278 12199 12387 398 707 14344 25 42 86 698
internal_value=-5.46632e-09 -2.39152 1.19808 1.48678 1.53301 1.51279 1.55278 1.55278 -1.33467 1.39431 1.55278 0.348398 1.51279 1.55278 1.55278 0.348398
internal_weight=99187 33105 66082 49323 32885 16259 16626 16220 16720 16438 4021 16759 371 406 364 2415
internal_count=99187 33105 66082 49323 32885 16259 16626 16220 16720 16438 4021 16759 371 406 364 2415
is_linear=0
shrinkage=0.05


Tree=64
num_leaves=14
num_cat=0
split_feature=8 8 8 8 8 1 1 1 1 1 1 3 5
split_gain=1.02594e+08 1.36212e+07 5.85194e+06 76111.6 4744.69 1.49012e-08 1.86265e-09 1.86265e-09 1.86265e-09 1.86265e-09 1.16415e-10 1.45519e-11 3.63798e-12
threshold=52.425875455843425 100.76088410813625 17.880989065295353 3.1414976819818601 1.1355182978549423 1.0000000180025095e-35 30.500000000000004 34.500000000000007 33.500000000000007 22.500000000000004 29.500000000000004 1.5000000000000002 20.500000000000004
decision_type=2 2 2 2 2 2 2 2 2 2 2 2 2
left_child=2 -2 3 4 6 -3 -1 -5 9 -6 -4 12 -12
right_child=1 5 10 7 8 -7 -8 -9 -10 -11 11 -13 -14
leaf_value=1.4751383781433107 -1.2679410934448243 -3.2964813232421877 0.33097813129425052 1.3245929718017579 1.437151622772217 -3.2964813232421877 1.4751383781433107 1.3245929718017579 1.437151622772217 1.437151622772217 0.33097813129425052 0.33097813129425052 0.33097813129425052
leaf_weight=14644 16720 376 14334 16040 10479 16009 1982 398 742 5038 249 2046 130
leaf_count=14644 16720 376 14334 16040 10479 16009 1982 398 742 5038 249 2046 130
internal_value=-8.88442e-09 -2.27195 1.13817 1.41244 1.45636 -3.29648 1.47514 1.32459 1.43715 1.43715 0.330978 0.330978 0.330978
internal_weight=99187 33105 66082 49323 32885 16385 16626 16438 16259 15517 16759 2425 379
internal_count=99187 33105 66082 49323 32885 16385 16626 16438 16259 15517 16759 2425 379
is_linear=0
shrinkage=0.05


Tree=65
num_leaves=17
num_cat=0
split_feature=0 0 8 8 0 7 6 2 2 3 3 5 5 3 5 5
split_gain=9.2591e+07 1.22932e+07 5.28137e+06 68690.7 4282.06 1.49012e-08 3.72529e-09 1.86265e-09 1.86265e-09 1.86265e-09 9.31323e-10 9.31323e-10 4.65661e-10 1.16415e-10 5.82077e-11 2.91038e-11
threshold=1.5000000000000002 1.0000000180025095e-35 17.880989065295353 3.1414976819818601 4.5000000000000009 2.5000000000000004 10.500000000000002 1.0000000180025095e-35 1.0000000180025095e-35 3.5000000000000004 2.5000000000000004 30.500000000000004 24.500000000000004 1.5000000000000002 28.500000000000004 6.5000000000000009
